tree
version=v2
num_class=4
num_tree_per_iteration=4
label_index=0
max_feature_idx=8
objective=multiclass num_class:4
feature_names=Gender Ever_Married Age Graduated Profession Work_Experience Spending_Score Family_Size Var_1
feature_infos=[0:1] [0:2] [0:66] [0:2] [0:9] [0:14] [0:2] [0:8] [0:7]
tree_sizes=2450 2455 2450 2437 2503 2508 2504 2493 2515 2494 2514 2487 2515 2483 2510 2496 2508 2491 2512 2491 2507 2489 2519 2501 2490 2474 2519 2490 2500 2489 2511 2507 2525 2511 2514 2508 2507 2501 2519 2511 2508 2508 2518 2509 2497 2508 2512 2512 2496 2484 2503 2505 2502 2494 2514 2507 2492 2506 2497 2501 2501 2506 2509 2511 2506 2522 2521 2512 2501 2505 2523 2504 2506 2495 2524 2511 2503 2505 2537 2528 2509 2515 2530 2520 2503 2514 2518 2526 2502 2507 2519 2502 2518 2520 2525 2507 2499 2507 2515 2509 2510 2517 2513 2509 2509 2524 2512 2511 2516 2523 2530 2509 2518 2510 2522 2510 2510 2502 2530 2518 2488 2522 2529 2507 2526 2508 2521 2510 2514 2505 2531 2528 2526 2518 2521 2494 2528 2530 2511 2524 2520 2536 2514 2519 2511 2530 2525 2514 2503 2517 2556 2502 2526 2537 2501 2500 2526 2501 2517 2514 2528 2515 2492 2516 2540 2529 2533 2508 2519 2511 2523 2515 2486 2519 2522 2530 2528 2533 2520 2522 2492 2512 2507 2533 2539 2518 2496 2530 2544 2527 2506 2548 2527 2502 2498 2525 2536 2512 2534 2544 2539 2537 2490 2525 2552 2522 2535 2524 2534 2521 2505 2536 2537 2531 2508 2531 2526 2528 2518 2543 2510 2522 2500 2545 2526 2511 2546 2552 2539 2517 2493 2538 2533 2520 2528 2536 2541 2511 2509 2533 2564 2519 2528 2539 2506 2516 2544 2545 2544 2536 2513 2544 2543 2532 2504 2514 2545 2535 2540 2536 2556 2521 2510 2524 2541 2547 2503 2533 2528 2540 2559 2527 2507 2538 2516 2527 2523 2506 2538 2537 2538 2535 2557 2537 2548 2522 2499 2531 2536 2533 2545 2539 2538 2525 2521 2528 2530 2532 2541 2527 2533 2532 2527 2543 2543 2540 2533 2530 2539 2542 2539 2541 2547 2526 2558 2542 2539 2534 2507 2526

Tree=0
num_leaves=31
num_cat=0
split_feature=2 6 4 3 4 2 2 2 2 2 4 7 2 0 4 4 0 7 2 5 5 2 8 2 2 2 8 1 3 7
split_gain=73.1392 62.2312 65.0198 35.4927 24.6758 20.1986 18.3995 17.625 14.7441 14.1605 7.08318 6.81962 6.45511 6.21912 6.03774 5.90084 5.83345 5.7987 5.26516 5.02816 4.48908 4.30924 4.17506 4.18087 3.81997 3.62016 3.31935 3.30308 3.09027 3.05373
threshold=5.5000000000000009 1.5000000000000002 3.5000000000000004 1.0000000180025095e-35 1.5000000000000002 18.500000000000004 15.500000000000002 58.500000000000007 24.500000000000004 15.500000000000002 1.0000000180025095e-35 1.0000000180025095e-35 58.500000000000007 1.0000000180025095e-35 1.0000000180025095e-35 1.0000000180025095e-35 1.0000000180025095e-35 1.5000000000000002 10.500000000000002 3.5000000000000004 8.5000000000000018 45.500000000000007 3.5000000000000004 53.500000000000007 23.500000000000004 15.500000000000002 4.5000000000000009 1.0000000180025095e-35 1.0000000180025095e-35 2.5000000000000004
decision_type=2 2 2 2 2 2 2 2 2 2 2 2 2 2 2 2 2 2 2 2 2 2 2 2 2 2 2 2 2 2
left_child=-1 3 4 22 8 17 15 14 10 -4 13 20 -11 25 -8 -5 -10 26 -13 -17 -12 -18 29 -24 -16 28 -6 -19 -3 -2
right_child=1 2 9 6 5 -7 7 -9 16 12 11 18 -14 -15 24 19 21 27 -20 -21 -22 -23 23 -25 -26 -27 -28 -29 -30 -31
leaf_value=-1.4710525396368186 -1.3588784779724747 -1.4038842473952498 -1.4411293945328167 -1.4270612715099744 -1.319997884715868 -1.3193725873490167 -1.460718083643332 -1.3605567274388466 -1.434787776218611 -1.4109042114299981 -1.3144720739000348 -1.446191230644666 -1.3577169163559144 -1.3455672227497077 -1.4179241754647465 -1.3219326672562626 -1.4022042560023187 -1.4067495388380042 -1.3898857350427725 -1.3968201326433018 -1.4109042114299981 -1.3236560869981266 -1.4133356647710238 -1.3667415805447298 -1.446490908090226 -1.3957355832607969 -1.3701884200284582 -1.343044559094098 -1.3414093867486547 -1.3949372344097863
leaf_count=528 120 29 577 63 53 344 722 62 179 380 38 75 74 269 174 45 195 147 113 53 20 21 307 63 471 170 110 26 83 136
internal_value=0 0.060218 0.21893 -0.147697 0.401913 0.652352 -0.278528 -0.338017 0.259045 -0.113315 0.388041 0.155591 0.104358 0.49182 -0.376983 0.249484 -0.00123274 0.365042 0.00322666 0.502377 0.649462 0.181031 0.184604 0.0726862 -0.261138 0.320868 0.588019 0.154953 0.550848 0.34636
internal_count=5647 5119 2903 2216 1872 680 1590 1429 1192 1031 797 246 454 551 1367 161 395 336 188 98 58 216 626 370 645 282 163 173 112 256
shrinkage=1


Tree=1
num_leaves=31
num_cat=0
split_feature=2 4 4 6 6 2 2 7 7 2 5 4 2 8 5 4 2 7 3 8 6 8 7 4 4 6 6 5 4 6
split_gain=120.485 11.5345 10.5555 10.293 8.54725 8.39189 6.61627 3.98198 3.9091 3.81621 3.25787 2.5398 5.17339 2.53851 2.51118 2.30886 2.24791 4.1868 4.64055 5.63205 4.35918 3.6365 4.52859 9.25513 6.74181 7.95532 7.46388 5.22188 3.41825 3.64181
threshold=14.500000000000002 1.0000000180025095e-35 4.5000000000000009 1.5000000000000002 1.0000000180025095e-35 60.500000000000007 5.5000000000000009 5.5000000000000009 1.5000000000000002 32.500000000000007 11.500000000000002 6.5000000000000009 26.500000000000004 1.5000000000000002 2.5000000000000004 3.5000000000000004 28.500000000000004 3.5000000000000004 1.0000000180025095e-35 4.5000000000000009 1.5000000000000002 4.5000000000000009 1.0000000180025095e-35 1.0000000180025095e-35 1.0000000180025095e-35 1.5000000000000002 1.0000000180025095e-35 1.0000000180025095e-35 1.0000000180025095e-35 1.5000000000000002
decision_type=2 2 2 2 2 2 2 2 2 2 2 2 2 2 2 2 2 2 2 2 2 2 2 2 2 2 2 2 2 2
left_child=1 4 5 11 -1 7 15 16 -6 -5 13 12 -4 -8 -13 -3 17 18 19 -2 -19 -18 23 -23 25 -24 -26 -28 -21 -30
right_child=2 6 3 9 8 -7 10 -9 -10 -11 -12 14 -14 -15 -16 -17 21 20 -20 28 -22 22 24 -25 26 -27 27 -29 29 -31
leaf_value=-1.3885794658754518 -1.4924208577295286 -1.4926737182616407 -1.4497179665141744 -1.5004694960766412 -1.4527748915461107 -1.5291980173445141 -1.4618595560776391 -1.4940433794772485 -1.5007902291689459 -1.4678371948852869 -1.5156116838692424 -1.4448268864630767 -1.3561290309210527 -1.4948764277679421 -1.4890212883533533 -1.5241306821564398 -1.4188515151500416 -1.4044557539445395 -1.4428754453406489 -1.408667830371032 -1.4747650296790706 -1.3873566958626773 -1.4733054700728994 -1.4637044454274166 -1.3987692159819056 -1.4160566540935444 -1.4103654386382642 -1.4651186774345617 -1.4305183321030668 -1.4890212883533533
leaf_count=36 130 77 46 186 92 31 71 40 99 220 207 260 26 844 42 444 288 124 1225 49 31 115 317 73 138 87 71 158 57 63
internal_value=0 -0.348134 0.172362 -0.00141748 0.00620671 0.21759 -0.39709 0.226662 -0.13507 -0.186316 -0.324572 0.199301 0.482334 -0.281591 0.131823 -0.553262 0.233846 0.193788 0.167081 -0.0202293 0.456378 0.287783 0.238154 0.47153 0.181248 0.0317826 0.345782 0.160126 0.181636 0.0292302
internal_count=5647 1870 3777 780 227 2997 1643 2966 191 406 1122 374 72 915 302 521 2926 1679 1524 299 155 1247 959 188 771 404 367 229 169 120
shrinkage=1


Tree=2
num_leaves=31
num_cat=0
split_feature=6 4 3 2 4 2 3 8 2 3 8 2 0 0 6 7 2 2 4 2 7 2 4 7 4 7 2 4 5 4
split_gain=297.931 170.493 51.3497 25.4611 22.9913 22.4582 10.7793 9.60143 9.36247 8.10308 7.53994 8.59161 7.23178 7.22686 8.17407 6.74586 11.5208 6.54777 6.42829 6.1865 5.89109 5.63978 5.47248 5.14507 4.97631 4.65849 4.4459 5.48324 4.21942 3.85696
threshold=1.5000000000000002 1.0000000180025095e-35 1.0000000180025095e-35 24.500000000000004 1.0000000180025095e-35 23.500000000000004 1.0000000180025095e-35 3.5000000000000004 23.500000000000004 1.0000000180025095e-35 4.5000000000000009 50.500000000000007 1.0000000180025095e-35 1.0000000180025095e-35 1.0000000180025095e-35 2.5000000000000004 5.5000000000000009 14.500000000000002 3.5000000000000004 17.500000000000004 1.0000000180025095e-35 51.500000000000007 1.5000000000000002 1.0000000180025095e-35 3.5000000000000004 1.5000000000000002 14.500000000000002 1.5000000000000002 10.500000000000002 7.5000000000000009
decision_type=2 2 2 2 2 2 2 2 2 2 2 2 2 2 2 2 2 2 2 2 2 2 2 2 2 2 2 2 2 2
left_child=1 3 7 6 8 26 -1 -3 23 -5 -7 18 20 -11 -15 -6 24 -8 22 -9 -10 -21 -12 -2 -17 -19 -4 -28 -20 -26
right_child=4 2 5 9 15 10 17 19 12 13 11 -13 -14 14 -16 16 -18 25 28 21 -22 -23 -24 -25 29 -27 27 -29 -30 -31
leaf_value=-1.4142556248514879 -1.4433121215199376 -1.4554800203549065 -1.4399946620840067 -1.3420186061291066 -1.4465641296422156 -1.3881983852356001 -1.3962919217829592 -1.4560815603543309 -1.3924569739368688 -1.2505945104197695 -1.2979642839341705 -1.3792541827901279 -1.4101299896969934 -1.2785298683337154 -1.365119613516983 -1.4037117121808298 -1.4141565603125072 -1.2943674326332637 -1.3139496296827091 -1.3851252955511713 -1.3297776698805692 -1.4404086631424342 -1.3711427374870191 -1.4105273091202839 -1.4681467340570742 -1.3375016208314108 -1.3237955486849684 -1.4019118512345661 -1.2418040753936124 -1.397853982919353
leaf_count=40 217 234 67 47 1648 91 30 67 89 244 38 97 209 216 34 46 544 138 173 185 74 68 100 318 246 132 28 179 25 23
internal_value=0 0.466208 0.100064 1.0281 -0.304934 0.366613 0.676092 -0.283883 -0.0809751 1.24933 0.565745 0.656014 0.11903 1.31129 1.11515 -0.385959 -0.268017 0.782818 0.780251 -0.099088 0.378193 0.0183662 0.508285 -0.220044 -0.51784 0.863654 -0.014207 0.104753 0.969803 -0.603159
internal_count=5647 2233 1352 881 3414 798 340 554 907 541 524 433 372 494 250 2507 859 300 336 320 163 253 138 535 315 270 274 207 198 269
shrinkage=1


Tree=3
num_leaves=31
num_cat=0
split_feature=2 2 4 6 4 4 4 4 2 5 3 8 4 8 6 3 2 8 0 2 7 2 4 6 2 4 2 8 2 5
split_gain=627.795 171.971 64.0673 70.6033 48.6128 26.5691 24.7044 19.4038 14.428 12.3728 10.6535 10.6252 8.97663 6.736 5.83963 4.47511 4.23601 4.10046 3.92685 3.69386 3.43117 3.35042 3.25185 3.22793 3.06412 3.00279 2.74748 3.30887 2.68558 2.59828
threshold=14.500000000000002 5.5000000000000009 1.5000000000000002 1.5000000000000002 1.0000000180025095e-35 3.5000000000000004 4.5000000000000009 5.5000000000000009 26.500000000000004 1.5000000000000002 1.0000000180025095e-35 3.5000000000000004 3.5000000000000004 4.5000000000000009 1.5000000000000002 1.0000000180025095e-35 7.5000000000000009 2.5000000000000004 1.0000000180025095e-35 60.500000000000007 3.5000000000000004 25.500000000000004 7.5000000000000009 1.0000000180025095e-35 9.5000000000000018 1.0000000180025095e-35 12.500000000000002 5.5000000000000009 21.500000000000004 7.5000000000000009
decision_type=2 2 2 2 2 2 2 2 2 2 2 2 2 2 2 2 2 2 2 2 2 2 2 2 2 2 2 2 2 2
left_child=1 6 23 11 -3 21 20 -8 22 13 19 15 16 18 -14 -4 -11 -18 -6 -10 -1 -5 29 -2 -19 -25 27 -15 -17 -7
right_child=2 4 3 5 9 8 7 -9 10 12 -12 -13 14 26 -16 28 17 24 -20 -21 -22 -23 -24 25 -26 -27 -28 -29 -30 -31
leaf_value=-1.1825045259303542 -1.3423842453749206 -1.2992771639577707 -1.2786264104863705 -1.2769639737050578 -1.2671132247111176 -1.2347160477420731 -1.0983495155154905 -1.2035837117549613 -1.2035837117549613 -1.1817985244912523 -1.2788848697588762 -1.3308022745311014 -1.2344142106895666 -1.2062862699083983 -1.1672326000634705 -1.2886400756086389 -1.3004067662603336 -1.2651897532980854 -1.2298712942377175 -1.2731080439484022 -1.2523986684014197 -1.3048093188241676 -1.1686836503004823 -1.3323631258503852 -1.2082549994723257 -1.3078855125393691 -1.2408257820663413 -1.2660668562624282 -1.3360326850334641 -1.1854383541328433
leaf_count=64 775 220 167 239 152 65 391 49 91 44 190 773 38 289 209 48 22 34 131 24 24 195 59 883 76 145 102 25 78 45
internal_value=0 0.747011 -0.369847 -0.173627 0.447149 0.149408 1.50916 1.66166 0.407441 0.580007 0.20271 -0.448782 0.792811 0.451229 0.986662 -0.193147 0.520758 0.379558 0.263604 0.581413 0.746679 -0.132407 0.776924 -0.584676 0.503814 -0.526761 0.578868 0.651886 -0.417439 0.616774
internal_count=5647 1870 3777 1974 1342 908 528 440 474 1122 305 1066 423 699 247 293 176 132 283 115 88 434 169 1803 110 1028 416 314 126 110
shrinkage=1


Tree=4
num_leaves=31
num_cat=0
split_feature=2 6 4 3 4 2 2 2 7 2 4 7 4 7 0 0 2 4 2 1 5 5 2 8 2 2 2 2 8 2
split_gain=65.6346 53.832 55.0208 30.9621 20.855 16.7032 15.8497 15.7513 13.0509 12.2402 5.72134 5.74948 5.58102 5.16272 5.15207 5.10421 5.055 4.95373 4.65885 4.39908 4.18107 3.68426 3.59943 3.55266 3.41139 3.41041 3.12429 3.0921 2.94982 2.92502
threshold=5.5000000000000009 1.5000000000000002 3.5000000000000004 1.0000000180025095e-35 1.5000000000000002 15.500000000000002 18.500000000000004 58.500000000000007 1.5000000000000002 24.500000000000004 1.0000000180025095e-35 1.0000000180025095e-35 1.0000000180025095e-35 1.0000000180025095e-35 1.0000000180025095e-35 1.0000000180025095e-35 54.500000000000007 1.0000000180025095e-35 10.500000000000002 1.0000000180025095e-35 3.5000000000000004 8.5000000000000018 45.500000000000007 3.5000000000000004 53.500000000000007 23.500000000000004 60.500000000000007 15.500000000000002 4.5000000000000009 12.500000000000002
decision_type=2 2 2 2 2 2 2 2 2 2 2 2 2 2 2 2 2 2 2 2 2 2 2 2 2 2 2 2 2 2
left_child=-1 3 4 23 9 17 13 12 26 10 14 21 -7 28 27 -11 -10 -5 -13 -15 -19 -12 -17 -2 -25 -14 -4 -3 -6 -21
right_child=1 2 8 5 6 7 -8 -9 16 15 11 18 25 19 -16 22 -18 20 -20 29 -22 -23 -24 24 -26 -27 -28 -29 -30 -31
leaf_value=-0.056685123850515245 0.031396544697065709 0.049463728026860027 0.0048919948265466005 -0.01314758451797716 0.12532029400301992 -0.046303728186141688 0.083110461441088454 0.047629177817111956 -0.031344319089144444 -0.021127089882103704 0.087237317944112241 -0.032361078732071911 -0.0052966501945709912 0.010880373289781921 0.059988627842136988 0.0094403228455614933 0.051990001070915094 0.081772156933816384 0.020718680004310024 0.01717612693815072 0.014535130221353644 0.00094329821323429163 0.079569092936417618 -0.00088808485812929953 0.040543924739751158 -0.032369319842482029 0.051177361800246894 0.014727156519242911 0.051417111018092924 0.084398336243549407
leaf_count=528 256 112 438 63 20 722 344 62 531 179 38 75 174 198 269 195 20 45 113 28 53 20 21 307 63 471 42 170 47 43
internal_value=0 0.055999 0.201549 -0.139435 0.365931 -0.264495 0.591135 -0.322813 -0.107037 0.235075 0.349979 0.141589 -0.361185 0.337182 0.440932 -0.00291695 -0.281943 0.234743 -6.77176e-05 0.235517 0.460161 0.584115 0.165174 0.167048 0.0637528 -0.249395 0.0908951 0.286693 0.739064 0.579766
internal_count=5647 5119 2903 2216 1872 1590 680 1429 1031 1192 797 246 1367 336 551 395 551 161 188 269 98 58 216 626 370 645 480 282 67 71
shrinkage=0.1


Tree=5
num_leaves=31
num_cat=0
split_feature=2 4 4 6 2 6 2 7 7 2 5 4 4 2 5 8 2 7 3 8 6 8 7 4 4 6 6 5 2 2
split_gain=106.277 10.652 9.14386 8.89917 7.59413 7.28051 6.2519 3.59542 3.51501 3.45742 3.08976 2.1963 2.14018 4.25833 2.23858 2.06636 2.0056 3.55841 4.11084 5.01597 3.57916 3.08469 3.72625 7.4253 5.65039 6.75939 6.11446 4.51188 3.04979 2.85176
threshold=14.500000000000002 1.0000000180025095e-35 4.5000000000000009 1.5000000000000002 60.500000000000007 1.0000000180025095e-35 5.5000000000000009 1.5000000000000002 5.5000000000000009 32.500000000000007 12.500000000000002 3.5000000000000004 6.5000000000000009 26.500000000000004 2.5000000000000004 1.5000000000000002 28.500000000000004 3.5000000000000004 1.0000000180025095e-35 4.5000000000000009 1.5000000000000002 4.5000000000000009 1.0000000180025095e-35 1.0000000180025095e-35 1.0000000180025095e-35 1.5000000000000002 1.0000000180025095e-35 1.0000000180025095e-35 45.500000000000007 40.500000000000007
decision_type=2 2 2 2 2 2 2 2 2 2 2 2 2 2 2 2 2 2 2 2 2 2 2 2 2 2 2 2 2 2
left_child=1 5 4 12 8 -1 11 -7 16 -5 15 -3 13 -4 -14 -8 17 18 19 -2 -19 -18 23 29 25 -24 -26 -28 -29 -23
right_child=2 6 3 9 -6 7 10 -9 -10 -11 -12 -13 14 -15 -16 -17 21 20 -20 -21 -22 22 24 -25 26 -27 27 28 -30 -31
leaf_value=0.068067554091850668 -0.02736020790488233 -0.027395864853684556 0.012784599920993969 -0.034832482056141173 -0.06405687120998417 0.010971136269791005 -0.00023544125793526459 -0.035299455519494871 -0.028860446414045778 -0.0035348122795078548 -0.051330741369769395 -0.058421751510351054 0.017632200580023571 0.095826510359689809 -0.02422292726455403 -0.029490221879234363 0.041639846586896241 0.053945850540205377 0.019617474752219199 0.016492998149647789 -0.0097846911275436422 0.081935165542965649 -0.0084427247277830738 0.00061230991309983046 0.058882326037372736 0.043742394071066656 0.049267679922701514 -0.013970627442419004 0.040982463755081758 0.019418146323411784
leaf_count=36 130 77 46 186 31 92 74 99 40 220 184 444 260 26 42 864 288 124 1225 169 31 90 317 73 138 87 71 121 37 25
internal_value=0 -0.332922 0.159423 -0.00247293 0.200997 0.00724137 -0.381296 -0.126898 0.209345 -0.176803 -0.310488 -0.537086 0.181427 0.436583 0.119335 -0.271391 0.21594 0.178319 0.153665 -0.0226414 0.416808 0.266408 0.220821 0.428951 0.169075 0.0314643 0.317258 0.148503 -0.0108089 0.683855
internal_count=5647 1870 3777 780 2997 227 1643 191 2966 406 1122 521 374 72 302 938 2926 1679 1524 299 155 1247 959 188 771 404 367 229 158 115
shrinkage=0.1


Tree=6
num_leaves=31
num_cat=0
split_feature=6 4 3 4 2 2 8 3 2 7 2 8 2 0 3 2 0 6 2 4 2 7 7 4 4 2 4 4 7 4
split_gain=255.672 135.066 44.5415 20.8174 18.8473 18.4433 8.85496 8.68732 8.32971 6.46838 10.7252 6.28087 6.88982 6.13152 5.77055 5.67169 5.35271 6.2993 5.08696 4.98146 4.96303 4.90249 4.82035 4.6493 4.43591 3.84404 4.667 3.62276 3.61267 3.40985
threshold=1.5000000000000002 1.0000000180025095e-35 1.0000000180025095e-35 1.0000000180025095e-35 24.500000000000004 23.500000000000004 3.5000000000000004 1.0000000180025095e-35 23.500000000000004 2.5000000000000004 5.5000000000000009 4.5000000000000009 50.500000000000007 1.0000000180025095e-35 1.0000000180025095e-35 17.500000000000004 1.0000000180025095e-35 1.0000000180025095e-35 53.500000000000007 3.5000000000000004 14.500000000000002 1.0000000180025095e-35 1.0000000180025095e-35 3.5000000000000004 1.5000000000000002 14.500000000000002 1.5000000000000002 7.5000000000000009 1.5000000000000002 4.5000000000000009
decision_type=2 2 2 2 2 2 2 2 2 2 2 2 2 2 2 2 2 2 2 2 2 2 2 2 2 2 2 2 2 2
left_child=1 4 6 8 7 25 -3 -1 22 -5 23 -7 19 21 -6 -8 -16 -18 -17 24 -9 -10 -2 -11 -13 -4 -27 -25 -22 -21
right_child=3 2 5 9 14 11 15 20 13 10 -12 12 -14 -15 16 18 17 -19 -20 29 28 -23 -24 27 -26 26 -28 -29 -30 -31
leaf_value=-0.012063963120120192 -0.040180673911701659 -0.052147018049985651 -0.036323172623105748 -0.043058926503783929 0.054054127686588786 0.011820904172805477 -0.052952641465823062 0.0057175350102007588 0.008304642559093434 -0.0019573227502939147 -0.011356391422760691 0.091963788893610371 0.020447660791192479 -0.0078545039920989834 0.12953533109560192 0.014560969994409999 0.10646378932851719 0.031972344423147468 -0.039574177635541524 0.10488371642291956 0.093825330580843885 0.064691635780449494 -0.0081873836089233504 -0.064761079596793503 0.027677366772343864 0.070179180348017289 -0.00049728838671324186 0.0033300627091949198 0.05688692873402651 0.06290317618657125
leaf_count=40 217 234 67 1648 47 91 67 30 89 46 544 38 97 209 244 190 216 34 63 107 138 74 318 246 100 28 179 23 132 91
internal_value=0 0.420774 0.090685 -0.29029 0.899781 0.332972 -0.272828 0.601799 -0.0774375 -0.36921 -0.252643 0.507954 0.587812 0.109618 1.08127 -0.0967537 1.13054 0.966925 0.0139244 0.695128 0.692956 0.343713 -0.210285 -0.499935 0.458444 -0.0143565 0.0940228 -0.586159 0.759598 0.855975
internal_count=5647 2233 1352 3414 881 798 554 340 907 2507 859 524 433 372 541 320 494 250 253 336 300 163 535 315 138 274 207 269 270 198
shrinkage=0.1


Tree=7
num_leaves=31
num_cat=0
split_feature=2 2 4 6 4 4 4 4 2 5 8 3 4 8 6 3 2 8 0 2 4 2 7 2 4 2 3 7 7 2
split_gain=532.642 128.156 59.8271 64.1569 39.9071 21.7627 17.7491 14.1592 11.749 9.99599 9.90174 9.28125 6.87398 5.52924 4.54333 4.08413 3.48474 3.55035 3.3745 3.08534 3.06781 3.04842 2.77242 2.62303 2.59817 2.56407 2.5114 2.47499 2.38257 2.32538
threshold=14.500000000000002 5.5000000000000009 1.5000000000000002 1.5000000000000002 1.0000000180025095e-35 3.5000000000000004 4.5000000000000009 5.5000000000000009 26.500000000000004 1.5000000000000002 3.5000000000000004 1.0000000180025095e-35 3.5000000000000004 4.5000000000000009 1.5000000000000002 1.0000000180025095e-35 7.5000000000000009 2.5000000000000004 1.0000000180025095e-35 28.500000000000004 1.0000000180025095e-35 60.500000000000007 3.5000000000000004 9.5000000000000018 7.5000000000000009 21.500000000000004 1.0000000180025095e-35 2.5000000000000004 1.0000000180025095e-35 9.5000000000000018
decision_type=2 2 2 2 2 2 2 2 2 2 2 2 2 2 2 2 2 2 2 2 2 2 2 2 2 2 2 2 2 2
left_child=1 6 20 10 27 19 22 -8 24 13 15 21 16 18 -14 -4 -11 -18 -6 -5 28 -10 -1 -19 -7 -17 -12 -3 -2 -16
right_child=2 4 3 5 9 8 7 -9 11 12 26 -13 14 -15 29 25 17 23 -20 -21 -22 -23 -24 -25 -26 -27 -28 -29 -30 -31
leaf_value=0.082364213368059602 -0.047993054166533961 -0.031017328151299803 -0.0023651570980153555 -0.0019867486621852229 0.0077752910498528477 0.055294761480069246 0.15077365815824259 0.063296297930929321 0.065890681431395579 0.084594672382438493 -0.039625794032890148 -0.0030705285337189864 0.037574674814675309 0.051948762167213558 0.11464387218147476 -0.01153048639792334 -0.02371552131330228 0.0093698544386409746 0.041960209403856065 -0.030074365715286201 -0.039847603089400593 0.0029943310975593159 0.020537235194717042 0.061520102719296012 0.095318220991425326 -0.058237988413185442 -0.059100952998541068 0.0086081477150206261 -0.062710689239077785 0.081986584090774958
leaf_count=64 371 168 167 281 152 110 391 49 91 44 252 190 38 416 89 48 22 34 131 153 242 24 24 76 59 78 521 52 1190 120
internal_value=0 0.665773 -0.352881 -0.163446 0.40515 0.141347 1.29246 1.41399 0.369765 0.521047 -0.431508 0.184507 0.707642 0.406349 0.871579 -0.184323 0.471816 0.344075 0.237393 -0.117947 -0.565641 0.531243 0.658755 0.456452 0.694405 -0.402018 -0.527388 -0.216188 -0.59189 0.958939
internal_count=5647 1870 3777 1974 1342 908 528 440 474 1122 1066 305 423 699 247 293 176 132 283 434 1803 115 88 110 169 126 773 220 1561 209
shrinkage=0.1


Tree=8
num_leaves=31
num_cat=0
split_feature=2 6 4 4 4 2 2 2 2 2 3 4 7 2 0 3 0 7 2 1 5 7 2 2 6 8 2 7 3 2
split_gain=58.8925 46.6038 46.7267 27.2267 17.936 12.7142 11.7712 11.6941 14.087 10.2093 6.1952 4.65357 4.87443 4.58595 4.45578 4.4307 4.33122 4.31618 4.14737 3.72891 3.08163 3.03301 3.00732 2.94751 4.66059 2.81352 4.00818 3.9191 3.5791 3.15848
threshold=5.5000000000000009 1.5000000000000002 3.5000000000000004 1.0000000180025095e-35 1.5000000000000002 18.500000000000004 15.500000000000002 23.500000000000004 52.500000000000007 24.500000000000004 1.0000000180025095e-35 1.0000000180025095e-35 1.0000000180025095e-35 58.500000000000007 1.0000000180025095e-35 1.0000000180025095e-35 1.0000000180025095e-35 1.0000000180025095e-35 10.500000000000002 1.0000000180025095e-35 8.5000000000000018 4.5000000000000009 45.500000000000007 21.500000000000004 1.0000000180025095e-35 3.5000000000000004 8.5000000000000018 3.5000000000000004 1.0000000180025095e-35 18.500000000000004
decision_type=2 2 2 2 2 2 2 2 2 2 2 2 2 2 2 2 2 2 2 2 2 2 2 2 2 2 2 2 2 2
left_child=-1 3 4 15 9 17 -4 25 10 11 21 16 20 -8 -11 -2 -3 -6 -14 -19 -13 -9 -16 24 -17 27 -27 28 -5 -29
right_child=1 2 6 7 5 -7 13 8 -10 14 -12 12 18 -15 22 23 -18 19 -20 -21 -22 -23 -24 -25 -26 26 -28 29 -30 -31
leaf_value=-0.055077694916655567 -0.0015547987884664306 0.025635637820744562 -0.0261625881498001 0.071738252487850887 0.067236002731523026 0.07483503644125622 0.0019783627251402781 -0.0063623664219830296 0.032472348666968326 -0.020161589711373492 -0.033540161137945938 0.078222344099858232 -0.031286190260080789 0.045701189684222654 0.0084976657965251008 -0.034102600595405104 0.053923372672458052 0.010199250962873751 0.018919113974678145 0.053048744424081397 0.00011699874830192851 0.058124026765077032 0.071303838432917307 -0.047044418207623284 0.036954536593030905 0.069237683732449151 0.0033252757669086259 -0.039945865382581013 0.024669945767748225 0.041763430495157357
leaf_count=528 86 282 577 77 67 344 380 226 158 179 438 38 75 74 195 179 269 198 113 71 20 21 21 584 31 27 245 29 93 22
internal_value=0 0.0522663 0.186016 -0.131483 0.334402 0.539472 -0.100922 0.0137478 -0.10604 0.213492 -0.21244 0.316384 0.128826 0.0948867 -0.00455328 -0.366167 0.396636 0.312609 -0.00300787 0.219327 0.527916 -0.00802388 0.150431 -0.407549 -0.235969 0.211583 0.0996871 0.346693 0.464219 -0.0488498
internal_count=5647 5119 2903 2216 1872 680 1031 1336 843 1192 685 797 246 454 395 880 551 336 188 269 58 247 216 794 210 493 272 221 170 51
shrinkage=0.1


Tree=9
num_leaves=31
num_cat=0
split_feature=2 4 4 6 2 2 7 7 4 4 6 5 4 8 2 4 7 4 2 2 7 3 8 8 6 4 6 8 7 4
split_gain=93.7555 9.81827 8.26333 6.19736 5.9162 4.19934 3.32657 3.25022 3.0806 2.97452 6.87054 2.93347 2.09721 2.07653 1.9589 2.04147 1.91742 1.85938 1.81578 1.75644 3.06927 3.63524 4.493 3.05121 2.9144 2.72056 2.94708 2.65929 3.13472 6.05159
threshold=14.500000000000002 1.0000000180025095e-35 7.5000000000000009 1.0000000180025095e-35 5.5000000000000009 61.500000000000007 5.5000000000000009 1.5000000000000002 6.5000000000000009 4.5000000000000009 1.5000000000000002 12.500000000000002 3.5000000000000004 4.5000000000000009 32.500000000000007 8.5000000000000018 1.5000000000000002 6.5000000000000009 29.500000000000004 28.500000000000004 3.5000000000000004 1.0000000180025095e-35 4.5000000000000009 2.5000000000000004 1.5000000000000002 1.0000000180025095e-35 1.5000000000000002 4.5000000000000009 1.0000000180025095e-35 1.0000000180025095e-35
decision_type=2 2 2 2 2 2 2 2 2 2 2 2 2 2 2 2 2 2 2 2 2 2 2 2 2 2 2 2 2 2
left_child=1 3 5 -1 12 6 9 -5 -7 19 13 16 -3 18 -4 -16 -6 -14 -11 20 21 22 -2 -22 -25 -24 -27 -21 29 -29
right_child=2 4 14 7 11 8 -8 -9 -10 10 -12 -13 17 -15 15 -17 -18 -19 -20 27 23 -23 25 24 -26 26 -28 28 -30 -31
leaf_value=0.06148336223702331 -0.026456600282456555 -0.026289275043068595 -0.036656339579376529 0.010375072150499228 -0.037217147013435613 -0.063282863983123008 -0.027559182784926275 -0.033844654952092872 0.0010079598992357491 0.023133346551674795 -0.013021272156053955 -0.049866809474491548 -0.060912558323054602 0.018440302180056298 -0.026880254483776889 0.038904774028699886 -0.020581814584163718 -0.023972481059176456 0.090379810133782323 0.038417565652009864 0.087446116740728552 0.018143991973456487 0.047310758693878498 0.038789267438038268 -0.02725469713335231 0.028097268447556167 -0.024084695232257661 0.061522315892817515 0.015700771263150972 0.00076714936647295806
leaf_count=36 130 77 106 92 299 31 47 99 76 21 267 184 398 226 29 24 639 46 22 288 28 1225 49 104 23 57 63 115 773 73
internal_value=0 -0.318093 0.147934 0.00825746 -0.365855 0.163852 0.173515 -0.118792 -0.166221 0.179306 0.0647268 -0.296716 -0.521584 0.248192 -0.230462 0.0294236 -0.258545 -0.56957 0.577128 0.199864 0.164821 0.141909 -0.0239976 0.383587 0.276513 0.151112 0.0142328 0.246677 0.204483 0.392739
internal_count=5647 1870 3777 227 1643 3618 3511 191 107 3464 536 1122 521 269 159 53 938 444 43 2928 1679 1524 299 155 127 169 120 1249 961 188
shrinkage=0.1


Tree=10
num_leaves=31
num_cat=0
split_feature=6 4 3 4 2 2 8 2 3 7 2 8 2 2 0 2 7 6 4 0 7 4 2 4 4 2 4 2 0 2
split_gain=220.123 108.936 38.5967 18.818 15.2573 14.6047 8.23041 7.41653 7.15371 6.17888 9.95289 5.26387 5.63402 5.24706 5.23017 4.59918 4.50476 4.46271 4.35406 4.20164 4.06402 3.90379 3.849 3.76424 3.41588 3.321 4.06418 3.11659 3.07374 3.06344
threshold=1.5000000000000002 1.0000000180025095e-35 1.0000000180025095e-35 1.0000000180025095e-35 23.500000000000004 24.500000000000004 3.5000000000000004 23.500000000000004 1.0000000180025095e-35 2.5000000000000004 5.5000000000000009 4.5000000000000009 50.500000000000007 17.500000000000004 1.0000000180025095e-35 51.500000000000007 1.0000000180025095e-35 1.0000000180025095e-35 3.5000000000000004 1.0000000180025095e-35 1.0000000180025095e-35 3.5000000000000004 14.500000000000002 1.5000000000000002 7.5000000000000009 14.500000000000002 1.5000000000000002 15.500000000000002 1.0000000180025095e-35 15.500000000000002
decision_type=2 2 2 2 2 2 2 2 2 2 2 2 2 2 2 2 2 2 2 2 2 2 2 2 2 2 2 2 2 2
left_child=1 5 6 7 25 8 -3 16 -1 -5 18 -6 21 -8 20 -15 28 -7 -11 -19 -9 23 -10 -13 -20 -4 -27 -12 -2 -18
right_child=3 2 4 9 11 17 13 14 22 10 27 12 -14 15 -16 -17 29 19 24 -21 -22 -23 -24 -25 -26 26 -28 -29 -30 -31
leaf_value=-0.011880607279454622 -0.021370784726361884 -0.050710269392919498 -0.034552003204518955 -0.041426619006481265 0.010303183309644198 0.10223691614462643 -0.051703952167015801 0.0075299105839659944 0.0057393841357508048 -0.001994735494730838 -0.0039403896320799568 0.083017466863873401 0.018456204388641876 0.014193004180949695 -0.0074386985046126612 -0.036312231573916005 -0.02367563971911622 0.088288113259679654 -0.063348440174083059 0.02414893630632578 0.058272320207842343 0.076167174173210575 0.067473089361103369 0.024908741253399463 0.0027843731356017084 0.064032303565527748 -0.00092332334871337456 -0.034598125400692729 -0.061721367360924588 0.0087301495187835539
leaf_count=40 122 234 67 1648 91 429 67 89 30 46 427 38 97 185 209 68 162 74 246 38 74 198 270 100 23 28 179 117 95 156
internal_value=0 0.381945 0.0824366 -0.276256 0.30308 0.797671 -0.261552 -0.0741156 0.539095 -0.35307 -0.2381 0.458095 0.529296 -0.0928814 0.101056 0.0121304 -0.200982 0.951837 -0.482898 0.676169 0.313726 0.623528 0.618555 0.416053 -0.570354 -0.0146161 0.0841703 -0.104829 -0.389011 -0.0772009
internal_count=5647 2233 1352 3414 798 881 554 907 340 2507 859 524 433 320 372 253 535 541 315 112 163 336 300 138 269 274 207 544 217 318
shrinkage=0.1


Tree=11
num_leaves=31
num_cat=0
split_feature=2 2 4 6 4 4 4 4 2 8 5 3 4 8 3 6 6 0 2 8 2 4 2 2 3 7 2 7 2 4
split_gain=455.3 99.725 55.9576 58.3443 33.0057 17.6502 13.7519 11.2072 9.69412 9.26766 8.269 8.0582 5.48538 4.59354 3.73998 3.67053 3.00857 2.9164 2.91207 3.09201 2.83399 2.68682 2.49173 2.45045 2.42193 2.29417 2.28004 2.25505 2.20825 2.49725
threshold=14.500000000000002 5.5000000000000009 1.5000000000000002 1.5000000000000002 1.0000000180025095e-35 3.5000000000000004 4.5000000000000009 5.5000000000000009 25.500000000000004 3.5000000000000004 1.5000000000000002 1.0000000180025095e-35 3.5000000000000004 4.5000000000000009 1.0000000180025095e-35 1.5000000000000002 1.0000000180025095e-35 1.0000000180025095e-35 7.5000000000000009 2.5000000000000004 28.500000000000004 1.0000000180025095e-35 60.500000000000007 21.500000000000004 1.0000000180025095e-35 3.5000000000000004 9.5000000000000018 2.5000000000000004 20.500000000000004 2.5000000000000004
decision_type=2 2 2 2 2 2 2 2 2 2 2 2 2 2 2 2 2 2 2 2 2 2 2 2 2 2 2 2 2 2
left_child=1 6 16 9 27 20 25 -8 -7 14 13 22 18 17 28 -14 -2 -6 -12 -20 -5 -18 -10 -16 -11 -1 -21 -3 -4 -30
right_child=2 4 3 5 10 8 7 -9 11 24 12 -13 15 -15 23 -17 21 -19 19 26 -22 -23 -24 -25 -26 -27 -28 -29 29 -31
leaf_value=0.073110035791629904 -0.062605522181259032 -0.029403495863700453 0.028420363629488788 -0.00094361167464004523 0.0065995149056831239 0.062950657810435059 0.1317045501062733 0.05550439372018149 0.059475263599191447 -0.03803347672330467 0.076325246757539364 -0.0030500061355031843 0.033885231014418739 0.046869592273256648 -0.010723267949168636 0.085620973277281298 -0.0525113462072683 0.038113579697298498 -0.023290914036029196 0.0077509583137904837 -0.028132852301119268 -0.028887429215391648 0.0029250130546735983 -0.05677973160052005 -0.0574347126099529 0.017609233381674427 0.055938882681660543 0.0085027314450635307 -0.044893090521363012 0.0027310325521582388
leaf_count=64 775 168 43 281 152 165 391 49 93 252 44 192 38 416 48 209 883 131 22 34 153 145 24 78 521 24 76 52 41 83
internal_value=0 0.599094 -0.33719 -0.154127 0.368822 0.133847 1.13403 1.23693 0.335487 -0.415296 0.470876 0.170169 0.637342 0.367432 -0.175757 0.780103 -0.548161 0.214265 0.428563 0.312147 -0.103406 -0.490782 0.484726 -0.387395 -0.510401 0.585476 0.41445 -0.202621 -0.0229072 -0.130018
internal_count=5647 1870 3777 1974 1342 908 528 440 474 1066 1122 309 423 699 293 247 1803 283 176 132 434 1028 117 126 773 88 110 220 167 124
shrinkage=0.1


Tree=12
num_leaves=31
num_cat=0
split_feature=2 6 4 4 4 7 2 2 2 2 3 3 2 0 4 7 2 7 0 2 6 7 5 2 2 3 8 2 7 3
split_gain=52.8092 40.4091 39.7629 24.0194 15.5094 11.0389 10.3154 10.2364 12.3472 8.60863 5.86549 4.12238 4.07908 3.90114 3.80499 4.15412 3.69578 3.63986 3.60325 2.79362 4.29048 2.61646 2.60582 2.58183 2.56075 2.45913 2.45781 3.47511 3.32859 2.87209
threshold=5.5000000000000009 1.5000000000000002 3.5000000000000004 1.0000000180025095e-35 1.5000000000000002 1.5000000000000002 18.500000000000004 23.500000000000004 50.500000000000007 24.500000000000004 1.0000000180025095e-35 1.0000000180025095e-35 54.500000000000007 1.0000000180025095e-35 1.0000000180025095e-35 1.0000000180025095e-35 10.500000000000002 1.5000000000000002 1.0000000180025095e-35 21.500000000000004 1.0000000180025095e-35 4.5000000000000009 8.5000000000000018 15.500000000000002 45.500000000000007 1.0000000180025095e-35 3.5000000000000004 8.5000000000000018 3.5000000000000004 1.0000000180025095e-35
decision_type=2 2 2 2 2 2 2 2 2 2 2 2 2 2 2 2 2 2 2 2 2 2 2 2 2 2 2 2 2 2
left_child=-1 3 4 11 9 -4 17 26 10 14 21 -2 -7 -11 18 22 -17 -6 23 20 -13 -9 -16 25 -15 -3 28 -28 29 -5
right_child=1 2 5 7 6 12 -8 8 -10 13 -12 19 -14 24 15 16 -18 -19 -20 -21 -22 -23 -24 -25 -26 -27 27 -29 -30 -31
leaf_value=-0.053543215003158451 -0.0010910159149156915 0.0015239835579325075 0.0085116866805475516 0.064551964713575383 0.0457667002149467 -0.029021982356312183 0.067792700178473997 -0.0066291040641652602 0.026370484032349109 -0.019280479490880215 -0.033720936175576782 -0.032616672198085055 0.044086572387944223 0.0076041139467208935 0.0707000100974471 -0.030184220471962949 0.017363001627347375 0.012383823510661564 0.048612839092251288 -0.045359729448517808 0.03533103486427621 0.052400537267628916 -0.00053013169775803124 0.010566800034588826 0.064623978627054865 0.05521940150387078 0.063090375264064399 0.0027143982550380604 -0.0047224754211276183 0.022967041098889054
leaf_count=528 86 29 480 77 163 531 344 218 182 179 422 179 20 195 38 75 113 173 269 584 31 21 20 170 21 83 27 245 51 93
internal_value=0 0.0488912 0.172077 -0.123947 0.306491 -0.094881 0.494216 0.0109365 -0.10217 0.194396 -0.212636 -0.349418 -0.260143 -0.00634996 0.287323 0.117934 -0.004946 0.290447 0.358532 -0.390612 -0.22232 -0.0119768 0.480029 0.231377 0.136933 0.416013 0.194078 0.0896578 0.318833 0.424609
internal_count=5647 5119 2903 2216 1872 1031 680 1336 843 1192 661 880 551 395 797 246 188 336 551 794 210 239 58 282 216 112 493 272 221 170
shrinkage=0.1


Tree=13
num_leaves=31
num_cat=0
split_feature=2 4 4 2 7 2 7 4 6 5 4 6 4 8 4 2 4 8 7 2 2 8 5 7 2 6 7 6 3 6
split_gain=82.9501 8.89477 7.33278 5.60289 5.43803 3.72961 2.95069 2.92225 2.90951 2.7854 2.60779 5.95278 2.00969 1.8899 1.79376 1.7924 1.82446 1.73344 1.70364 1.667 1.64241 2.76807 2.68003 2.63558 2.24119 3.32838 1.57977 3.01615 2.84331 4.68303
threshold=14.500000000000002 1.0000000180025095e-35 7.5000000000000009 5.5000000000000009 1.5000000000000002 61.500000000000007 5.5000000000000009 6.5000000000000009 1.0000000180025095e-35 12.500000000000002 4.5000000000000009 1.5000000000000002 3.5000000000000004 1.5000000000000002 6.5000000000000009 32.500000000000007 8.5000000000000018 4.5000000000000009 3.5000000000000004 23.500000000000004 35.500000000000007 4.5000000000000009 6.5000000000000009 2.5000000000000004 34.500000000000007 1.5000000000000002 3.5000000000000004 1.5000000000000002 1.0000000180025095e-35 1.5000000000000002
decision_type=2 2 2 2 2 2 2 2 2 2 2 2 2 2 2 2 2 2 2 2 2 2 2 2 2 2 2 2 2 2
left_child=1 4 5 12 8 6 10 -7 -1 13 20 17 18 -5 -14 -4 -17 -12 -3 -13 24 22 23 -22 26 -26 28 -28 29 -2
right_child=2 3 15 9 -6 7 -8 -9 -10 -11 11 19 14 -15 -16 16 -18 -19 -20 -21 21 -23 -24 -25 25 -27 27 -29 -30 -31
leaf_value=0.069190351780371431 0.020715978726297404 -0.041679215758344101 -0.035424447303107946 0.0013155993114483244 -0.028051922742190139 -0.062498926164860663 -0.026503677174984832 0.00094469036179323045 0.0095329992471400483 -0.048451295386087639 0.052321721897608031 -0.033424339174739713 -0.059660095771447499 -0.026931669612035504 -0.023004017897765759 -0.026065574043346435 0.035926328224846378 0.016977956095736876 0.014599248745049252 -0.0037795646559378887 0.020270893818756183 0.020426830009964786 0.10138476969214164 0.075131037575989157 -0.044414783251184919 0.037885909074640428 0.039781442605650384 -0.01238767918625578 0.018931173620081312 -0.015948560650577551
leaf_count=27 198 55 106 74 108 31 47 76 92 184 43 80 398 864 46 29 24 226 22 187 75 499 20 33 38 20 169 38 1649 189
internal_value=0 -0.303964 0.137929 -0.350789 0.00589426 0.152685 0.161664 -0.159921 0.241812 -0.283317 0.167017 0.0598916 -0.506714 -0.246073 -0.55577 -0.221291 0.0256945 0.228207 -0.252022 -0.123468 0.186099 0.260601 0.472041 0.370867 0.16574 -0.153048 0.174007 0.309017 0.159891 0.0311128
internal_count=5647 1870 3777 1643 227 3618 3511 107 119 1122 3464 536 521 938 444 159 53 269 77 267 2928 627 128 108 2301 58 2243 207 2036 387
shrinkage=0.1


Tree=14
num_leaves=31
num_cat=0
split_feature=6 4 3 4 2 2 8 2 3 7 2 2 0 8 2 7 2 4 3 0 6 7 4 4 0 4 2 2 0 5
split_gain=189.971 90.014 33.4629 16.98 12.629 11.7675 7.64151 6.56045 5.99071 5.95859 9.2747 4.78702 4.45742 4.42042 4.51899 4.2351 4.13988 4.084 4.00983 3.99772 4.09668 3.4031 3.26565 3.25233 3.51895 4.21478 3.08058 2.95481 2.9377 2.88533
threshold=1.5000000000000002 1.0000000180025095e-35 1.0000000180025095e-35 1.0000000180025095e-35 23.500000000000004 24.500000000000004 3.5000000000000004 23.500000000000004 1.0000000180025095e-35 2.5000000000000004 5.5000000000000009 17.500000000000004 1.0000000180025095e-35 4.5000000000000009 50.500000000000007 1.0000000180025095e-35 53.500000000000007 3.5000000000000004 1.0000000180025095e-35 1.0000000180025095e-35 1.0000000180025095e-35 1.0000000180025095e-35 7.5000000000000009 3.5000000000000004 1.0000000180025095e-35 1.5000000000000002 14.500000000000002 8.5000000000000018 1.0000000180025095e-35 10.500000000000002
decision_type=2 2 2 2 2 2 2 2 2 2 2 2 2 2 2 2 2 2 2 2 2 2 2 2 2 2 2 2 2 2
left_child=1 5 6 7 27 8 -3 15 -1 -5 17 -8 21 -6 23 28 -13 -11 -7 -20 -21 -9 -19 24 -15 -26 -10 -4 -2 -25
right_child=3 2 4 9 13 18 11 12 26 10 -12 16 -14 14 -16 -17 -18 22 19 20 -22 -23 -24 29 25 -27 -28 -29 -30 -31
leaf_value=-0.011689647338086648 -0.020590682685847975 -0.049361130132710457 -0.063747757093530144 -0.039872115990059812 0.0089238115996021477 0.041692650177308929 -0.050371214007664637 0.0067217398215309908 0.0055150094087133726 -0.0020109209699819362 -0.0095464727128007094 0.0123685152123239 -0.0070732585619995144 0.005122394053886415 0.016932986494266968 -0.0071961292175469829 -0.037178063469076719 -0.062082208175343816 0.10242528446701978 0.082785478423243325 0.024512643013850831 0.052681256994298035 0.0027624032929940328 0.06112038992952467 0.11558367116176711 0.03617034029717444 0.060599605764223144 0.0031644157709567128 -0.060582950761984791 0.11594825446592838
leaf_count=40 122 234 21 1648 91 47 67 89 30 46 544 190 209 52 97 318 63 246 244 216 34 74 23 173 21 65 270 253 95 25
internal_value=0 0.348269 0.0739739 -0.262764 0.275355 0.716334 -0.251286 -0.0709468 0.487037 -0.337456 -0.223436 -0.0898643 0.0926056 0.413147 0.476916 -0.191711 0.00879035 -0.466527 0.851131 0.889647 0.754792 0.286035 -0.555501 0.559083 0.371954 0.567838 0.557412 -0.015125 -0.376807 0.682251
internal_count=5647 2233 1352 3414 798 881 554 907 340 2507 859 320 372 524 433 535 253 315 541 494 250 163 269 336 138 86 300 274 217 198
shrinkage=0.1


Tree=15
num_leaves=31
num_cat=0
split_feature=2 2 4 6 4 4 4 4 8 2 3 5 4 8 3 6 6 2 0 4 2 8 2 3 7 2 2 2 8 7
split_gain=390.789 80.4058 52.236 53.1623 27.7887 14.4255 11.2908 9.19869 8.74134 8.15427 7.09928 6.97198 4.39737 3.91345 3.38196 3.00084 2.90092 2.59292 2.54368 2.52173 2.48134 2.71954 2.37499 2.33759 2.15404 2.11963 2.07848 2.07652 2.61319 2.45708
threshold=14.500000000000002 5.5000000000000009 1.5000000000000002 1.5000000000000002 1.0000000180025095e-35 3.5000000000000004 4.5000000000000009 5.5000000000000009 3.5000000000000004 25.500000000000004 1.0000000180025095e-35 1.5000000000000002 3.5000000000000004 4.5000000000000009 1.0000000180025095e-35 1.5000000000000002 1.0000000180025095e-35 25.500000000000004 1.0000000180025095e-35 1.0000000180025095e-35 7.5000000000000009 2.5000000000000004 21.500000000000004 1.0000000180025095e-35 1.5000000000000002 12.500000000000002 60.500000000000007 12.500000000000002 5.5000000000000009 1.0000000180025095e-35
decision_type=2 2 2 2 2 2 2 2 2 2 2 2 2 2 2 2 2 2 2 2 2 2 2 2 2 2 2 2 2 2
left_child=1 6 16 8 -3 17 -1 -8 14 -7 26 13 20 18 -4 -14 -2 -5 -6 -18 -13 -22 -16 -10 25 -23 -11 28 29 -15
right_child=2 4 3 5 11 9 7 -9 23 10 -12 12 15 27 22 -17 19 -19 -20 -21 21 24 -24 -25 -26 -27 -28 -29 -30 -31
leaf_value=0.05229595340445399 -0.061026276945676333 -0.019262038611063993 -0.0022811558262483163 0.0019417208133836136 0.0054366249276751218 0.057110519987087882 0.11751586433556378 0.049507823103820986 -0.03659719010665291 0.054375368523786854 -0.0034627056593152308 0.069629775319596382 0.030770348858567016 0.091325345166933927 -0.0095655431715895162 0.077053020005587572 -0.050878303010794407 -0.023153750177552133 0.03464618915787987 -0.027786816053303545 -0.022827894626176556 -0.013638099166511056 -0.055367731658103297 -0.055922418395225604 0.057319289183041335 0.049320982824547749 0.0028652353187747694 0.023689080467824423 0.0012818299854113252 0.047594519931302884
leaf_count=88 775 220 167 239 152 165 391 49 252 93 192 44 38 33 48 209 883 195 131 145 22 28 78 521 60 22 24 102 25 256
internal_value=0 0.542535 -0.322419 -0.145763 0.33626 0.126808 1.013 1.10423 -0.40028 0.30608 0.154384 0.42748 0.578063 0.333234 -0.167157 0.703349 -0.531625 -0.0906514 0.192625 -0.474616 0.392464 0.285304 -0.371947 -0.494902 0.379291 0.146032 0.445564 0.425346 0.485702 0.525666
internal_count=5647 1870 3777 1974 1342 908 528 440 1066 474 309 1122 423 699 293 247 1803 434 283 1028 176 132 126 773 110 50 117 416 314 289
shrinkage=0.1


Tree=16
num_leaves=31
num_cat=0
split_feature=2 6 4 4 4 7 2 2 2 2 3 3 2 2 7 7 1 2 6 4 0 7 2 2 5 2 2 8 2 2
split_gain=47.3171 34.9355 33.8558 21.2112 13.6721 9.96469 8.97132 10.8008 8.52005 7.39223 5.00418 3.7554 3.63024 3.52405 3.29094 3.24582 2.95865 2.64188 3.9538 2.34415 3.20969 2.95308 3.42468 2.70546 2.37969 2.4318 2.61135 2.28949 2.88738 2.26724
threshold=5.5000000000000009 1.5000000000000002 3.5000000000000004 1.0000000180025095e-35 1.5000000000000002 1.5000000000000002 23.500000000000004 52.500000000000007 18.500000000000004 24.500000000000004 1.0000000180025095e-35 1.0000000180025095e-35 54.500000000000007 29.500000000000004 1.0000000180025095e-35 3.5000000000000004 1.0000000180025095e-35 21.500000000000004 1.0000000180025095e-35 1.0000000180025095e-35 1.0000000180025095e-35 1.0000000180025095e-35 9.5000000000000018 15.500000000000002 13.500000000000002 7.5000000000000009 19.500000000000004 2.5000000000000004 39.500000000000007 10.500000000000002
decision_type=2 2 2 2 2 2 2 2 2 2 2 2 2 2 2 2 2 2 2 2 2 2 2 2 2 2 2 2 2 2
left_child=-1 3 4 11 9 -4 -5 10 14 15 -8 -2 -7 -11 -6 19 -16 18 -13 20 23 -21 -23 -3 25 -22 -27 -10 -29 -18
right_child=1 2 5 6 8 12 7 -9 27 13 -12 17 -14 -15 16 -17 29 -19 -20 21 24 22 -24 -25 -26 26 -28 28 -30 -31
leaf_value=-0.052068140707655988 -0.0010638275747128117 0.043169073484203485 0.0080723875097761626 0.017879261574839121 0.057543891187487983 -0.027773301709052581 -0.0013276094364855261 0.026939043828161181 0.037968911259375307 -0.022998593521430712 -0.03096573437200156 -0.031164979949479088 0.040472233358699171 0.0099512640803280494 0.0084388440761833088 -0.005998917631173873 0.0021224351527844034 -0.043694482679751422 0.033886288817142188 0.04402161899432161 0.093818274599105037 -0.035009043879378074 0.018519782365386043 0.010116237388903937 0.096606668456646394 0.024299309358707184 0.059727003598204022 0.075137264916512583 0.032401377128336843 0.063652456055637005
leaf_count=528 86 96 480 493 67 531 247 158 73 132 438 179 20 263 198 73 21 584 31 58 20 50 102 168 21 130 79 228 43 50
internal_value=0 0.0458544 0.159248 -0.116493 0.281282 -0.0890506 0.00894383 -0.0979194 0.455259 0.17638 -0.194841 -0.333173 -0.248464 -0.00985587 0.270659 0.261313 0.189153 -0.373865 -0.209028 0.292787 0.348093 0.147795 0.0226813 0.224864 0.471179 0.425759 0.376818 0.619047 0.683108 0.459333
internal_count=5647 5119 2903 2216 1872 1031 1336 843 680 1192 685 880 551 395 336 797 269 794 210 724 514 210 152 264 250 229 209 344 271 71
shrinkage=0.1


Tree=17
num_leaves=31
num_cat=0
split_feature=2 2 4 4 7 2 4 5 7 4 6 6 4 7 7 4 2 4 8 2 2 7 3 8 8 4 6 6 8 7
split_gain=73.1594 8.24239 6.52689 5.13654 5.24748 3.36067 2.75744 2.63663 2.61493 2.28329 5.1882 2.24426 2.1165 2.48907 1.77684 1.73596 1.6447 1.63818 1.55237 1.48288 1.47156 2.36822 2.91652 3.963 2.56853 2.2279 2.23377 2.22515 1.96632 2.44879
threshold=14.500000000000002 5.5000000000000009 7.5000000000000009 1.0000000180025095e-35 1.5000000000000002 61.500000000000007 6.5000000000000009 12.500000000000002 5.5000000000000009 4.5000000000000009 1.5000000000000002 1.0000000180025095e-35 3.5000000000000004 3.5000000000000004 1.5000000000000002 6.5000000000000009 32.500000000000007 8.5000000000000018 2.5000000000000004 23.500000000000004 28.500000000000004 3.5000000000000004 1.0000000180025095e-35 4.5000000000000009 2.5000000000000004 1.0000000180025095e-35 1.5000000000000002 1.5000000000000002 4.5000000000000009 1.0000000180025095e-35
decision_type=2 2 2 2 2 2 2 2 2 2 2 2 2 2 2 2 2 2 2 2 2 2 2 2 2 2 2 2 2 2
left_child=1 12 5 4 11 8 -7 14 9 20 -11 -3 13 -1 -5 -14 -4 -18 -17 -12 21 22 23 -2 -23 -25 -27 -26 -22 -30
right_child=2 3 16 7 -6 6 -8 -9 -10 10 19 -13 15 -15 -16 18 17 -19 -20 -21 28 24 -24 25 27 26 -28 -29 29 -31
leaf_value=-0.042779776686288518 -0.025606402656895285 0.062702124840763138 -0.034267520813887647 -0.034645645566902666 -0.028181519566723358 -0.061790056155423836 0.0006407125136321187 -0.047045063164390853 -0.025447402945847977 0.02107569743458701 -0.031957007406943898 0.010875777501007005 -0.058503164666129925 0.023337789697002329 -0.018254335956220138 0.014743788834676381 -0.025282548573313125 0.033321254577039404 -0.050568692401455943 -0.003714632404879261 0.033157607953383794 0.076694761540796505 0.015628704496523114 0.041968737944517415 0.032498257023233883 0.023387656344128722 -0.021980849466307253 -0.025631787805384068 0.03429473063181547 0.013771155253604495
leaf_count=61 130 27 106 299 103 31 76 184 47 269 80 90 398 23 639 20 29 24 26 187 288 28 1225 49 104 57 63 23 188 773
internal_value=0 -0.289879 0.128677 -0.220131 0.0127902 0.142391 -0.155486 -0.270134 0.15081 0.155761 0.0556272 0.241307 -0.48808 -0.238395 -0.233882 -0.542698 -0.212765 0.0224549 -0.220687 -0.117216 0.173472 0.141668 0.121546 -0.0272475 0.330147 0.134923 0.00974697 0.232523 0.215765 0.179607
internal_count=5647 1870 3777 1342 220 3618 107 1122 3511 3464 536 117 528 84 938 444 159 53 46 267 2928 1679 1524 299 155 169 120 127 1249 961
shrinkage=0.1


Tree=18
num_leaves=31
num_cat=0
split_feature=6 4 3 4 2 2 8 2 2 7 7 3 4 2 7 8 4 2 6 2 0 5 0 4 7 4 0 4 2 2
split_gain=164.519 75.2614 29.0634 15.2092 10.5041 9.72844 7.07673 5.54314 5.42658 10.2775 5.18549 5.06339 4.85282 4.38249 4.05975 3.77479 3.74442 3.6444 3.24343 3.19367 2.98268 3.44055 2.94915 2.93494 2.84623 2.75595 3.0286 3.50886 2.70383 2.60113
threshold=1.5000000000000002 1.0000000180025095e-35 1.0000000180025095e-35 1.5000000000000002 23.500000000000004 24.500000000000004 3.5000000000000004 23.500000000000004 5.5000000000000009 2.5000000000000004 1.0000000180025095e-35 1.0000000180025095e-35 4.5000000000000009 17.500000000000004 3.5000000000000004 4.5000000000000009 7.5000000000000009 50.500000000000007 1.0000000180025095e-35 15.500000000000002 1.0000000180025095e-35 9.5000000000000018 1.0000000180025095e-35 3.5000000000000004 1.5000000000000002 3.5000000000000004 1.0000000180025095e-35 1.5000000000000002 8.5000000000000018 54.500000000000007
decision_type=2 2 2 2 2 2 2 2 2 2 2 2 2 2 2 2 2 2 2 2 2 2 2 2 2 2 2 2 2 2
left_child=1 5 6 7 28 11 -3 10 16 12 -2 -1 -10 -8 29 -6 23 25 -7 -11 21 -9 -20 -5 -13 26 -17 -28 -4 -15
right_child=3 2 4 8 15 18 13 20 9 19 -12 24 -14 14 -16 17 -18 -19 22 -21 -22 -23 -24 -25 -26 -27 27 -29 -30 -31
leaf_value=-0.011451721829468745 -0.038457929342812947 -0.048015121910976011 -0.062638769654806456 -0.0043040529344030558 0.0076296354084087999 0.082637457624938612 -0.049118324563952341 0.0081460306861045589 -0.049894054950440941 -0.0008470939285812394 -0.0096265246178219507 0.06437578741818753 -0.02802868367482075 0.0032897747885752854 0.063928088810341316 0.0036912360883297954 -0.0032393530541493967 0.015678318234108903 0.070606746951892854 -0.034334804218537573 -0.0084644938032427675 0.061367096037077955 0.01828250226107616 -0.061327082970907665 0.034685604142531905 0.061563727850152232 0.10339541168406403 0.032440472224036489 0.0028590023182930853 -0.03829454557589633
leaf_count=40 273 234 21 27 91 429 67 151 590 351 550 159 663 172 24 52 40 97 74 107 231 38 38 393 141 198 21 65 253 57
internal_value=0 0.319069 0.0666545 -0.249963 0.25102 0.648716 -0.241082 -0.105187 -0.340578 -0.297006 -0.187973 0.44241 -0.381688 -0.0868424 0.00606914 0.374276 -0.51524 0.432142 0.768937 -0.084338 0.0448428 0.189991 0.541082 -0.569712 0.505365 0.504341 0.333844 0.511656 -0.0150137 -0.0615199
internal_count=5647 2233 1352 3414 798 881 554 1243 2171 1711 823 340 1253 320 253 524 460 433 541 458 420 189 112 420 300 336 138 86 274 229
shrinkage=0.1


Tree=19
num_leaves=31
num_cat=0
split_feature=2 2 4 6 4 4 4 8 4 5 4 4 3 5 4 8 2 4 7 6 6 4 4 3 0 2 2 3 0 2
split_gain=337.539 66.3428 48.9969 48.3552 23.3067 12.5268 9.69673 8.28662 7.9164 6.00951 5.6561 4.83872 5.01861 4.87765 3.61052 3.32798 3.1183 3.64165 3.00241 2.80673 2.47336 2.39698 2.39074 5.62313 3.24146 2.36338 2.35496 2.26157 2.233 2.1427
threshold=14.500000000000002 5.5000000000000009 1.5000000000000002 1.5000000000000002 1.0000000180025095e-35 7.5000000000000009 4.5000000000000009 3.5000000000000004 5.5000000000000009 1.5000000000000002 3.5000000000000004 5.5000000000000009 1.0000000180025095e-35 10.500000000000002 3.5000000000000004 4.5000000000000009 20.500000000000004 6.5000000000000009 1.5000000000000002 1.0000000180025095e-35 1.5000000000000002 1.0000000180025095e-35 4.5000000000000009 1.0000000180025095e-35 1.0000000180025095e-35 57.500000000000007 28.500000000000004 1.0000000180025095e-35 1.0000000180025095e-35 7.5000000000000009
decision_type=2 2 2 2 2 2 2 2 2 2 2 2 2 2 2 2 2 2 2 2 2 2 2 2 2 2 2 2 2 2
left_child=1 6 19 7 -3 10 -1 16 -8 15 26 13 25 22 29 28 -4 -18 -7 -2 -16 -21 23 -12 -24 -13 -5 -9 -6 -11
right_child=2 4 3 5 9 18 8 27 -10 14 11 12 -14 -15 20 -17 17 -19 -20 21 -22 -23 24 -25 -26 -27 -28 -29 -30 -31
leaf_value=0.046880625645081768 -0.059614824388835488 -0.018065223196811107 0.010099036541652198 0.00073114782616178061 0.0044610617605213452 0.042265203903656089 0.10664720614036283 -0.035209118495132842 0.044281606646685651 0.063972814315987434 0.050805434877623595 0.052651028535939809 -0.012241185281451942 0.10457864102408476 0.028318793504413464 0.038698204155108107 -0.037410548125050624 0.014965557973765276 0.096294914330000952 -0.049406953596165801 0.069998918256516357 -0.026692010675934769 0.017662032686554637 -0.040293045846134114 0.089370505356512447 -0.0022982183094859272 -0.024527662811865109 -0.054485583176316035 0.031657689293974743 0.026177853293399441
leaf_count=88 775 220 83 281 152 64 391 252 49 44 32 53 152 22 38 416 167 43 35 883 209 145 31 31 26 28 153 521 131 132
internal_value=0 0.494881 -0.308732 -0.137759 0.30833 0.120141 0.917366 -0.385599 1.00121 0.389958 0.0520827 0.185355 0.0473137 0.402939 0.528197 0.303081 -0.158087 -0.264469 0.616612 -0.51657 0.640075 -0.459896 0.281602 0.0753469 0.501949 0.347304 -0.0780862 -0.480011 0.173994 0.36108
internal_count=5647 1870 3777 1974 1342 908 528 1066 440 1122 809 375 233 142 423 699 293 210 99 1803 247 1028 120 63 57 81 434 773 283 176
shrinkage=0.1


Tree=20
num_leaves=31
num_cat=0
split_feature=2 6 4 4 4 2 2 2 2 2 3 3 5 2 8 8 7 7 2 7 8 2 6 1 2 4 7 5 8 2
split_gain=42.4014 30.3624 28.6966 18.6546 11.94 9.07163 7.86869 9.56373 7.11084 6.32237 4.73522 3.48737 3.31389 3.16567 2.85749 5.49596 2.83771 2.78231 2.7171 3.06261 2.54725 2.51257 3.62948 2.41845 2.34388 2.28719 2.22319 2.21916 2.17096 2.97617
threshold=5.5000000000000009 1.5000000000000002 3.5000000000000004 1.0000000180025095e-35 1.5000000000000002 15.500000000000002 23.500000000000004 50.500000000000007 18.500000000000004 24.500000000000004 1.0000000180025095e-35 1.0000000180025095e-35 9.5000000000000018 58.500000000000007 4.5000000000000009 2.5000000000000004 3.5000000000000004 3.5000000000000004 7.5000000000000009 1.0000000180025095e-35 4.5000000000000009 21.500000000000004 1.0000000180025095e-35 1.0000000180025095e-35 29.500000000000004 4.5000000000000009 4.5000000000000009 2.5000000000000004 3.5000000000000004 8.5000000000000018
decision_type=2 2 2 2 2 2 2 2 2 2 2 2 2 2 2 2 2 2 2 2 2 2 2 2 2 2 2 2 2 2
left_child=25 3 4 11 9 20 28 10 14 16 26 -2 24 -7 15 -6 -3 27 -16 -20 -4 22 -13 -22 -11 -1 -8 -17 -5 -30
right_child=1 2 5 6 8 13 7 -9 -10 12 -12 21 -14 -15 18 17 -18 -19 19 -21 23 -23 -24 -25 -26 -27 -28 -29 29 -31
leaf_value=-0.024120175370149478 -0.00064080969055649415 0.026742007180174318 -0.0082165838685180799 0.027984336560984327 0.0070740859397410956 0.0022745273765415503 -0.0067719339427368104 0.022056970248688593 0.056653720270421329 -0.014656043131948675 -0.031149220168271465 -0.029721750441961889 -0.037622910885016729 0.037871217533407692 0.052424555328447392 0.11127867152376146 -0.0062009558064067835 0.019496903323163926 0.040558308932748866 -0.009039539816368479 -0.03684022184083012 -0.042121517038068407 0.032443512746204092 0.007477115760385249 0.014536649964375002 -0.056343932418980586 0.046811161816848315 0.047137164817677268 0.055662915557363218 0.00089780068614842543
leaf_count=88 86 724 215 221 61 380 218 182 344 111 422 179 59 74 37 35 73 21 40 121 322 584 31 40 225 440 21 21 27 245
internal_value=0 0.0430889 0.147896 -0.109694 0.258602 -0.0825876 0.00669647 -0.0942668 0.419317 0.160814 -0.195052 -0.317441 -0.0116534 0.0867015 0.251254 0.423944 0.238424 0.702288 0.127952 0.0403819 -0.229433 -0.357914 -0.19599 -0.317947 0.0503553 -0.506572 -0.0169354 0.877703 0.164312 0.0669827
internal_count=5647 5119 2903 2216 1872 1031 1336 843 680 1192 661 880 395 454 336 138 797 77 198 161 577 794 210 362 336 528 239 56 493 272
shrinkage=0.1


Tree=21
num_leaves=31
num_cat=0
split_feature=2 2 4 4 7 2 4 5 7 7 4 6 4 6 6 5 2 2 4 7 5 8 4 7 2 2 2 2 0 1
split_gain=64.456 7.76937 5.67069 4.68365 4.78628 3.02491 2.61071 2.503 2.35985 2.07875 11.4874 7.72743 5.99146 14.9789 13.2171 3.53491 3.07161 3.82891 2.91273 2.78606 3.74592 2.63593 2.47282 2.42619 2.40039 3.2633 3.07245 2.51227 2.28888 4.33879
threshold=14.500000000000002 5.5000000000000009 7.5000000000000009 1.0000000180025095e-35 1.5000000000000002 61.500000000000007 6.5000000000000009 12.500000000000002 5.5000000000000009 2.5000000000000004 1.5000000000000002 1.5000000000000002 1.5000000000000002 1.5000000000000002 1.5000000000000002 12.500000000000002 39.500000000000007 50.500000000000007 2.5000000000000004 1.5000000000000002 11.500000000000002 2.5000000000000004 3.5000000000000004 1.5000000000000002 24.500000000000004 26.500000000000004 28.500000000000004 20.500000000000004 1.0000000180025095e-35 1.0000000180025095e-35
decision_type=2 2 2 2 2 2 2 2 2 2 2 2 2 2 2 2 2 2 2 2 2 2 2 2 2 2 2 2 2 2
left_child=1 -1 5 4 -3 8 -7 -5 9 12 -11 15 14 -14 23 18 28 -18 -12 21 -21 -16 -13 -2 27 -26 -27 -23 29 -15
right_child=2 3 -4 7 -6 6 -8 -9 -10 10 11 22 13 16 19 -17 17 -19 -20 20 -22 24 -24 -25 25 26 -28 -29 -30 -31
leaf_value=-0.047425214299735313 -0.0059765047237610716 0.022968548244577537 -0.020112833988127771 -0.022181314603856282 -0.02715567472620601 -0.061131347450885179 0.00042648926411716927 -0.04568719679575866 -0.024676045442770616 0.00031669738428514782 0.084444928065146307 -0.027725421595873948 0.022160049682550916 -0.026695796935826185 0.06418440350452656 0.0033096540952956936 0.025763387462868638 -0.020087933573806921 0.047397745844427193 0.023372047893854067 -0.053472129347087893 0.035140323682432958 0.031156128554215685 0.014948109803339141 0.087791984443478452 -0.0053432291973570375 0.044742867161095254 0.0039762659884086523 -0.033549879863301907 0.021300584476260456
leaf_count=528 403 117 159 938 103 31 76 184 47 358 70 54 602 156 84 37 103 101 225 105 20 176 33 240 38 37 204 110 224 84
internal_value=0 -0.276024 0.120334 -0.208432 0.0139266 0.132907 -0.15084 -0.257143 0.140803 0.145438 0.219326 0.399836 0.123765 0.0406412 0.195579 0.505811 -0.13729 0.0331516 0.56329 0.334263 0.113579 0.376079 -0.0546667 0.0185893 0.337002 0.439909 0.373371 0.231587 -0.214119 -0.0974901
internal_count=5647 1870 3777 1342 220 3618 107 1122 3511 3464 777 419 2687 1270 1417 332 668 204 295 774 125 649 87 643 565 279 241 286 464 240
shrinkage=0.1


Tree=22
num_leaves=31
num_cat=0
split_feature=6 3 4 4 8 2 2 2 7 7 2 2 2 4 4 6 4 2 6 7 0 0 4 4 0 1 4 7 0 2
split_gain=142.42 64.4708 29.2393 13.8137 9.48618 9.42926 7.48411 5.57805 6.49222 5.55039 7.87955 5.10691 5.0535 4.16044 7.81383 4.11704 3.71743 3.66332 4.82293 4.41286 3.58157 3.47045 3.92141 3.02204 2.92388 2.94107 2.86366 2.78435 2.74598 2.8103
threshold=1.5000000000000002 1.0000000180025095e-35 1.5000000000000002 1.0000000180025095e-35 3.5000000000000004 23.500000000000004 21.500000000000004 15.500000000000002 1.0000000180025095e-35 2.5000000000000004 5.5000000000000009 18.500000000000004 51.500000000000007 3.5000000000000004 5.5000000000000009 1.0000000180025095e-35 3.5000000000000004 14.500000000000002 1.0000000180025095e-35 1.5000000000000002 1.0000000180025095e-35 1.0000000180025095e-35 1.0000000180025095e-35 7.5000000000000009 1.0000000180025095e-35 1.0000000180025095e-35 3.5000000000000004 3.5000000000000004 1.0000000180025095e-35 23.500000000000004
decision_type=2 2 2 2 2 2 2 2 2 2 2 2 2 2 2 2 2 2 2 2 2 2 2 2 2 2 2 2 2 2
left_child=1 4 6 7 -1 -4 17 27 28 -5 16 -6 20 15 -15 -7 -11 -3 19 -19 -13 22 -8 -18 25 -10 -22 -2 -9 -30
right_child=3 2 5 9 11 13 21 8 24 10 -12 12 -14 14 -16 -17 23 18 -20 -21 26 -23 -24 -25 -26 -27 -28 -29 29 -31
leaf_value=-0.04342258473898028 -0.036794161090510723 -0.0068481820072350793 -0.0078626713952188315 -0.036943407195035458 -0.03881126763226083 0.021218133695693645 0.085026129783459775 -0.0010121282877801104 0.0085146503188634603 -0.00098106797777422722 -0.0079734083773358097 -0.010316935897618664 -0.033111944245215734 0.067894176901569903 0.020612844240052032 -0.050021043261209708 -0.059890574622316367 0.077775815949106542 -0.0059247903743892645 0.029047131210087791 0.054107514136754922 0.059039590346047013 0.021929803067896162 0.002977286971358661 0.0022237578555204338 0.05288723414241589 0.010207440369178538 0.017759382115874096 -0.062229468148803285 -0.015765684535774427
leaf_count=266 202 41 235 1648 87 113 291 175 70 46 544 69 68 137 194 24 246 94 34 75 79 329 25 23 178 80 72 30 61 111
internal_value=0 0.292869 0.444105 -0.237463 -0.173101 0.198281 0.616318 -0.0647868 0.00910674 -0.307999 -0.195798 -0.0110437 0.0868697 0.317959 0.408508 0.0866839 -0.434095 0.387135 0.46336 0.565488 0.19697 0.696721 0.805279 -0.527991 0.169802 0.32825 0.334265 -0.294287 -0.153269 -0.308271
internal_count=5647 2233 1592 3414 641 703 889 907 675 2507 859 375 288 468 331 137 315 244 203 169 220 645 316 269 328 150 151 232 347 172
shrinkage=0.1


Tree=23
num_leaves=31
num_cat=0
split_feature=2 2 4 6 4 4 4 3 4 5 2 4 4 3 5 6 4 2 8 6 4 4 4 2 7 1 4 4 3 0
split_gain=292.638 55.6429 45.9183 44.0664 19.6161 10.5334 8.54085 7.79748 6.97772 5.22149 4.59065 4.52584 4.14715 4.50315 4.13961 3.26075 3.57722 2.95535 2.88467 2.74071 2.57769 2.32408 2.31829 2.14705 2.10396 3.76828 3.22633 2.05342 5.00312 2.75364
threshold=14.500000000000002 5.5000000000000009 1.5000000000000002 1.5000000000000002 1.0000000180025095e-35 7.5000000000000009 4.5000000000000009 1.0000000180025095e-35 5.5000000000000009 1.5000000000000002 20.500000000000004 3.5000000000000004 5.5000000000000009 1.0000000180025095e-35 10.500000000000002 1.0000000180025095e-35 3.5000000000000004 18.500000000000004 4.5000000000000009 1.0000000180025095e-35 8.5000000000000018 1.0000000180025095e-35 6.5000000000000009 25.500000000000004 1.5000000000000002 1.0000000180025095e-35 3.5000000000000004 4.5000000000000009 1.0000000180025095e-35 1.0000000180025095e-35
decision_type=2 2 2 2 2 2 2 2 2 2 2 2 2 2 2 2 2 2 2 2 2 2 2 2 2 2 2 2 2 2
left_child=1 6 19 7 -3 11 -1 10 -8 18 17 23 14 -14 27 -11 -17 -4 24 -2 -7 -21 -12 -5 26 -26 -6 28 -13 -29
right_child=2 4 3 5 9 20 8 -9 -10 15 22 12 13 -15 -16 16 -18 -19 -20 21 -22 -23 -24 -25 25 -27 -28 29 -30 -31
leaf_value=0.042239882338871854 -0.058328256265577319 -0.016894680592007074 -0.0041655795640232812 0.0032958676167584066 -0.031600770254908699 0.072251189227629659 0.097936169962999781 -0.049347372675203366 0.039873338149053771 0.0080091479629244029 -0.037487725666566482 0.046516701885740919 0.032257455957594709 -0.012079166684284513 0.094944006316983881 0.034474353905498883 0.063666597916508 0.067247904558600552 0.035406445956444162 -0.048021854811611406 0.020845778042593948 -0.025432272076115755 -0.0087064726194727281 -0.019885176411540275 0.014695510271327806 0.070315969213866736 0.029416253900271739 0.0157381071720759 -0.039282422913666536 0.081077587656588068
leaf_count=88 775 220 52 239 47 68 391 647 49 41 235 32 81 152 22 151 231 21 416 883 31 145 111 195 167 34 35 31 31 26
internal_value=0 0.453565 -0.295894 -0.130525 0.283813 0.113934 0.839033 -0.371892 0.917881 0.357199 -0.20123 0.0508032 0.168917 0.0408295 0.368232 0.484922 0.525941 0.162749 0.276729 -0.502326 0.563618 -0.445739 -0.281903 -0.0669658 0.157049 0.240426 -0.0492126 0.256159 0.0646945 0.457456
internal_count=5647 1870 3777 1974 1342 908 528 1066 440 1122 419 809 375 233 142 423 382 73 699 1803 99 1028 346 434 283 201 82 120 63 57
shrinkage=0.1


Tree=24
num_leaves=31
num_cat=0
split_feature=2 6 4 4 4 7 2 2 2 2 3 2 5 3 2 7 8 8 7 2 6 4 2 7 4 5 8 4 8 2
split_gain=37.9555 26.3458 24.5167 16.8 10.1065 8.35212 6.92581 8.4572 5.8373 5.32841 4.27682 3.14883 3.45067 3.08745 2.9919 2.50891 2.90343 4.92615 2.47291 2.33008 3.19362 2.20144 1.92769 5.97655 3.22065 2.75617 2.39226 2.09612 3.12164 3.68305
threshold=5.5000000000000009 1.5000000000000002 3.5000000000000004 1.0000000180025095e-35 1.5000000000000002 1.5000000000000002 23.500000000000004 50.500000000000007 18.500000000000004 24.500000000000004 1.0000000180025095e-35 44.500000000000007 10.500000000000002 1.0000000180025095e-35 22.500000000000004 3.5000000000000004 4.5000000000000009 2.5000000000000004 3.5000000000000004 21.500000000000004 1.0000000180025095e-35 4.5000000000000009 9.5000000000000018 1.5000000000000002 7.5000000000000009 13.500000000000002 1.5000000000000002 4.5000000000000009 3.5000000000000004 20.500000000000004
decision_type=2 2 2 2 2 2 2 2 2 2 2 2 2 2 2 2 2 2 2 2 2 2 2 2 2 2 2 2 2 2
left_child=21 3 4 13 9 -4 22 10 15 18 -8 12 -11 -2 -7 16 17 -6 -3 20 -15 -1 23 -5 25 26 -24 28 29 -28
right_child=1 2 5 6 8 14 7 -9 -10 11 -12 -13 -14 19 -16 -17 -18 -19 -20 -21 -22 -23 24 -25 -26 -27 27 -29 -30 -31
leaf_value=-0.023138297207877204 -0.0012965730830691569 0.024572752008725579 0.007669760569050982 0.078111340218435105 0.013689885892496499 -0.028603245214271402 -0.0016978262268294087 0.020432992634726539 0.051615421049015821 0.00021389343884679253 -0.029836639680567517 0.040597425235941287 -0.047565694890614164 -0.028484524748963132 0.0049954301504532561 -0.0089107237491827269 0.016236274347893192 0.07968735884158927 -0.0061706637346950737 -0.04062176827915473 0.029354254267112623 -0.055163979039346417 -0.046315390005206611 -0.013398531957455238 0.064961123788827221 0.052731551123068536 0.01568155035318558 -0.022980737132795193 -0.0025847997185876001 0.079177019189670975
leaf_count=88 86 724 480 40 52 463 239 182 344 305 422 40 50 179 88 54 174 56 73 584 31 440 23 31 26 32 95 51 166 29
internal_value=0 0.0405915 0.137454 -0.10305 0.238478 -0.0771339 0.00656425 -0.0890545 0.384736 0.148612 -0.185525 -0.0102497 -0.0619648 -0.304022 -0.227119 0.232955 0.29032 0.487168 0.219035 -0.343434 -0.186874 -0.492962 0.153344 0.390372 0.111565 0.075394 0.0360633 0.0696563 0.122027 0.307592
internal_count=5647 5119 2903 2216 1872 1031 1336 843 680 1192 661 395 355 880 551 336 282 108 797 794 210 528 493 71 422 396 364 341 290 124
shrinkage=0.1


Tree=25
num_leaves=31
num_cat=0
split_feature=2 2 4 4 7 2 4 5 4 7 7 4 6 6 8 4 2 3 8 8 2 8 2 2 2 2 6 8 5 7
split_gain=57.0035 7.2253 4.9841 4.11346 4.30418 2.66238 2.48465 2.3814 2.09909 2.39772 2.09252 1.90804 3.92189 1.85319 1.745 1.72398 1.50432 1.57682 1.49763 1.4252 1.41011 1.3473 1.33662 1.30014 1.28422 1.94123 2.83918 1.85703 2.02081 2.06369
threshold=14.500000000000002 5.5000000000000009 7.5000000000000009 1.0000000180025095e-35 1.5000000000000002 61.500000000000007 6.5000000000000009 12.500000000000002 3.5000000000000004 3.5000000000000004 5.5000000000000009 4.5000000000000009 1.5000000000000002 1.0000000180025095e-35 1.5000000000000002 6.5000000000000009 32.500000000000007 1.0000000180025095e-35 2.5000000000000004 3.5000000000000004 8.5000000000000018 4.5000000000000009 3.5000000000000004 29.500000000000004 35.500000000000007 34.500000000000007 1.5000000000000002 4.5000000000000009 6.5000000000000009 2.5000000000000004
decision_type=2 2 2 2 2 2 2 2 2 2 2 2 2 2 2 2 2 2 2 2 2 2 2 2 2 2 2 2 2 2
left_child=1 8 5 4 13 10 -7 14 9 22 11 24 21 -3 20 -10 -4 -18 -17 -6 -5 23 -1 -13 25 -2 -27 28 29 -26
right_child=2 3 16 7 19 6 -8 -9 15 -11 -12 12 -14 -15 -16 18 17 -19 -20 -21 -22 -23 -24 -25 27 26 -28 -29 -30 -31
leaf_value=-0.061637519573120539 0.014199958349673206 0.055392202739206364 -0.031949221730200768 -0.028773898896067907 -0.00037619657022390529 -0.060435314671668267 0.00059877318259205132 -0.044392807475715591 -0.056561139947512697 0.025926023353414974 -0.023623272223979697 0.014338289112939794 -0.010769582828725083 0.0090744369435866359 -0.023353968243500386 0.017014044736203136 -0.024307727732037831 0.033519059244984079 -0.04849115170064533 -0.042996346958125826 0.02135390038438343 0.012570715642836489 -0.0067661657007604924 0.068732636561811153 0.015067091848845174 -0.043782769648110564 0.031406023810655409 0.017100018333038598 0.083437907925098934 0.062147090847963764
leaf_count=37 2243 27 106 25 40 31 76 184 398 23 47 21 267 90 864 20 28 25 26 63 49 226 24 22 75 38 20 499 20 33
internal_value=0 -0.262935 0.11306 -0.198018 0.00959304 0.124689 -0.143175 -0.244662 -0.460039 -0.206192 0.132007 0.136305 0.0450798 0.211166 -0.210206 -0.519146 -0.190884 0.0342182 -0.192191 -0.264419 0.0426943 0.176689 -0.401152 0.428888 0.15231 0.134477 -0.161527 0.217082 0.384981 0.297985
internal_count=5647 1870 3777 1342 220 3618 107 1122 528 84 3511 3464 536 117 938 444 159 53 46 103 74 269 61 43 2928 2301 58 627 128 108
shrinkage=0.1


Tree=26
num_leaves=31
num_cat=0
split_feature=6 3 4 4 8 2 2 2 7 4 2 2 2 7 4 4 6 4 2 6 7 0 4 2 4 2 5 0 5 8
split_gain=123.056 54.8776 24.0914 12.5803 8.82258 8.0658 6.28562 4.93065 9.18911 4.76043 4.64324 5.85688 4.41598 4.64541 3.63065 6.73325 3.73274 3.43822 3.09646 4.01543 3.7325 3.0619 3.4034 2.86512 2.78347 2.53761 4.20723 2.53711 2.51373 2.17696
threshold=1.5000000000000002 1.0000000180025095e-35 1.5000000000000002 1.5000000000000002 3.5000000000000004 23.500000000000004 21.500000000000004 5.5000000000000009 2.5000000000000004 4.5000000000000009 22.500000000000004 46.500000000000007 23.500000000000004 1.0000000180025095e-35 3.5000000000000004 5.5000000000000009 1.0000000180025095e-35 7.5000000000000009 14.500000000000002 1.0000000180025095e-35 1.5000000000000002 1.0000000180025095e-35 1.0000000180025095e-35 15.500000000000002 3.5000000000000004 41.500000000000007 1.0000000180025095e-35 1.0000000180025095e-35 1.0000000180025095e-35 2.5000000000000004
decision_type=2 2 2 2 2 2 2 2 2 2 2 2 2 2 2 2 2 2 2 2 2 2 2 2 2 2 2 2 2 2
left_child=1 4 6 12 29 -4 18 17 9 -9 -6 -12 13 27 16 -16 -7 24 -3 20 -20 22 -8 -10 -5 -14 -27 -2 -22 -1
right_child=3 2 5 7 10 14 21 8 23 -11 11 -13 25 -15 15 -17 -18 -19 19 -21 28 -23 -24 -25 -26 26 -28 -29 -30 -31
leaf_value=-0.016845972137261231 -0.021447344131987248 -0.0067948445255638472 -0.0074330105469169244 -0.0032369303565751399 -0.028737688075322038 0.019408855358451313 0.077514978822931929 -0.047480782415825852 0.00036776961718525927 -0.02511880341001756 0.029720655520016966 -0.021748972575306783 0.0088349880206393516 -0.0082697787249694944 0.062338328841698223 0.01884787997869803 -0.048847862878517959 -0.0026134953764915389 0.070339051485148865 -0.0057613347714979965 0.07169225464189305 0.053411077891873743 0.019249995119432668 -0.031948994057578776 -0.059364763257721921 0.024385558866295204 -0.066869916943663996 -0.056004500091094922 0.0095898792978772879 -0.052527892539162027
leaf_count=77 151 41 235 27 124 113 291 590 351 663 152 99 364 550 137 194 24 40 94 34 20 329 25 107 393 23 33 122 55 189
internal_value=0 0.269006 0.405954 -0.225246 -0.165374 0.183186 0.560143 -0.311364 -0.26972 -0.353565 -0.0100985 0.111394 -0.0936042 -0.169246 0.292361 0.375986 0.0768703 -0.487859 0.351747 0.420522 0.511636 0.632912 0.733787 -0.0678027 -0.546004 0.039424 -0.286611 -0.361096 0.26021 -0.422326
internal_count=5647 2233 1592 3414 641 703 889 2171 1711 1253 375 251 1243 823 468 331 137 460 244 203 169 645 316 458 420 420 56 273 75 266
shrinkage=0.1


Tree=27
num_leaves=31
num_cat=0
split_feature=2 2 4 6 4 4 4 8 4 5 4 4 3 5 2 4 1 6 7 7 0 7 8 4 2 4 0 3 8 2
split_gain=253.595 47.8618 43.091 39.7677 16.8892 8.97593 7.79674 7.78059 6.54157 4.54578 3.74337 3.62171 4.03409 3.55383 2.84832 3.15614 2.79232 2.75838 2.6838 2.42839 2.42259 2.60167 2.54799 2.22369 2.14554 2.12521 3.1959 2.10188 1.99956 1.98878
threshold=14.500000000000002 5.5000000000000009 1.5000000000000002 1.5000000000000002 1.0000000180025095e-35 7.5000000000000009 4.5000000000000009 3.5000000000000004 5.5000000000000009 1.5000000000000002 3.5000000000000004 5.5000000000000009 1.0000000180025095e-35 10.500000000000002 20.500000000000004 6.5000000000000009 1.0000000180025095e-35 1.0000000180025095e-35 2.5000000000000004 1.5000000000000002 1.0000000180025095e-35 5.5000000000000009 4.5000000000000009 1.0000000180025095e-35 12.500000000000002 2.5000000000000004 1.0000000180025095e-35 1.0000000180025095e-35 5.5000000000000009 57.500000000000007
decision_type=2 2 2 2 2 2 2 2 2 2 2 2 2 2 2 2 2 2 2 2 2 2 2 2 2 2 2 2 2 2
left_child=1 6 17 7 -3 10 -1 14 -8 20 -5 13 29 -12 -4 -16 25 -2 24 -7 21 22 -6 28 -18 26 -11 -9 -19 -13
right_child=2 4 3 5 9 19 8 27 -10 16 11 12 -14 -15 15 -17 18 23 -20 -21 -22 -23 -24 -25 -26 -27 -28 -29 -30 -31
leaf_value=0.038040384843894819 -0.057201425683813117 -0.016213878775577749 0.011312278135814299 -0.0059590353331281862 0.003758132780542585 0.034615370229105318 0.091130781439261496 -0.032808538371955229 0.03530847928224258 0.00092502376634065117 0.023587070515852158 0.04607908525991327 -0.011860110144739129 0.087114779188497971 -0.034589246490213631 0.014343109877693803 -0.0011934658193271154 -0.04815457380239576 0.06681023610574216 0.082188943320772076 0.033949816004195971 -0.033734947959153085 0.030627570012764629 -0.024259604348434712 0.05067558905796854 0.058130368632543561 0.06375322249792946 -0.05189400741314304 -0.0026030654670465021 -0.003877894121089312
leaf_count=88 775 220 83 434 140 64 391 252 49 40 120 53 152 22 167 43 66 852 26 35 348 22 189 145 24 235 32 521 31 28
internal_value=0 0.416412 -0.283338 -0.12327 0.260348 0.107146 0.774774 -0.35746 0.850924 0.327403 0.0483616 0.155058 0.0352181 0.339953 -0.135067 -0.239418 0.445749 -0.488556 0.248021 0.518188 0.252746 0.164229 0.197446 -0.431059 0.126468 0.516707 0.292073 -0.453182 -0.465726 0.29967
internal_count=5647 1870 3777 1974 1342 908 528 1066 440 1122 809 375 233 142 293 210 423 1803 116 99 699 351 329 1028 90 307 72 773 883 81
shrinkage=0.1


Tree=28
num_leaves=31
num_cat=0
split_feature=2 6 4 4 4 7 2 2 7 2 3 2 0 3 2 2 2 2 6 7 4 3 5 8 8 0 4 4 8 7
split_gain=33.9498 22.9563 20.9069 14.8308 9.01063 7.47446 6.06831 7.50407 5.28263 4.61458 3.58558 3.1407 3.03719 2.73377 2.7191 2.22968 3.39879 2.1719 2.82065 2.16734 2.15237 2.06661 2.03427 2.13225 3.07125 1.94077 3.30178 2.10248 1.77425 2.67475
threshold=5.5000000000000009 1.5000000000000002 3.5000000000000004 1.0000000180025095e-35 1.5000000000000002 1.5000000000000002 23.500000000000004 52.500000000000007 1.5000000000000002 24.500000000000004 1.0000000180025095e-35 16.500000000000004 1.0000000180025095e-35 1.0000000180025095e-35 54.500000000000007 39.500000000000007 27.500000000000004 21.500000000000004 1.0000000180025095e-35 3.5000000000000004 4.5000000000000009 1.0000000180025095e-35 6.5000000000000009 2.5000000000000004 4.5000000000000009 1.0000000180025095e-35 5.5000000000000009 3.5000000000000004 3.5000000000000004 3.5000000000000004
decision_type=2 2 2 2 2 2 2 2 2 2 2 2 2 2 2 2 2 2 2 2 2 2 2 2 2 2 2 2 2 2
left_child=20 3 4 13 9 -4 28 10 15 19 25 21 -11 -2 -7 16 -6 18 -15 -3 -1 -10 23 -13 -25 27 -27 -8 29 -5
right_child=1 2 5 6 8 14 7 -9 11 12 -12 22 -14 17 -16 -17 -18 -19 -20 -21 -22 -23 -24 24 -26 26 -28 -29 -30 -31
leaf_value=-0.021927475313906517 -0.0017079436781176243 0.022521730943422268 0.0072995344672755289 0.0335669729032659 0.042661034450512683 -0.024294039732835861 0.036638514818311665 0.021246521413879116 0.02104549243108049 -0.017983143025564214 -0.027289338044693051 0.008721448181285011 0.011147633995702353 -0.027124386187461297 0.03369644637922023 0.012967688894028807 0.077782574810431937 -0.039069629645144224 0.026927435958036525 -0.0062430502736098466 -0.054066802981616341 -0.01572814648845498 0.00060349225531655649 0.097811673478604311 0.036016605754267135 -0.023603738357128062 0.041897040899554087 -0.01276318242663893 0.0053602134322752234 -0.0079709851515150625
leaf_count=88 86 724 480 170 277 531 55 158 84 179 438 26 216 179 20 38 76 584 31 73 440 75 28 27 49 130 24 38 272 51
internal_value=0 0.0382713 0.128049 -0.0970142 0.220258 -0.0715189 0.00502193 -0.0852187 0.357298 0.135644 -0.170178 0.196471 -0.0123592 -0.289795 -0.215572 0.468027 0.505537 -0.328211 -0.176244 0.200541 -0.479726 0.0376398 0.359948 0.456379 0.57968 -0.0189502 -0.132259 0.164501 0.14142 0.244342
internal_count=5647 5119 2903 2216 1872 1031 1336 843 680 1192 685 289 395 880 551 391 353 794 210 797 528 159 130 102 76 247 154 93 493 221
shrinkage=0.1


Tree=29
num_leaves=31
num_cat=0
split_feature=2 2 4 2 2 4 4 7 5 4 7 7 7 4 7 6 6 1 5 8 2 8 2 0 8 8 2 4 5 7
split_gain=50.2307 6.75799 4.39707 4.65605 4.0587 5.69946 3.62065 3.88175 2.25938 2.04505 2.22299 1.96545 1.769 1.68262 1.67489 1.5513 1.50706 1.4344 2.93438 1.40358 1.62111 1.52721 1.52196 3.38092 1.40139 1.33569 1.30453 1.26222 3.2275 2.8556
threshold=14.500000000000002 5.5000000000000009 4.5000000000000009 60.500000000000007 32.500000000000007 6.5000000000000009 1.0000000180025095e-35 1.5000000000000002 11.500000000000002 3.5000000000000004 3.5000000000000004 1.5000000000000002 5.5000000000000009 6.5000000000000009 1.0000000180025095e-35 1.0000000180025095e-35 1.5000000000000002 1.0000000180025095e-35 3.5000000000000004 1.5000000000000002 8.5000000000000018 2.5000000000000004 6.5000000000000009 1.0000000180025095e-35 2.5000000000000004 3.5000000000000004 3.5000000000000004 3.5000000000000004 8.5000000000000018 2.5000000000000004
decision_type=2 2 2 2 2 2 2 2 2 2 2 2 2 2 2 2 2 2 2 2 2 2 2 2 2 2 2 2 2 2
left_child=1 9 3 12 16 -6 7 15 11 10 26 17 27 -11 -7 -3 -4 -8 -19 20 -13 -21 23 -23 -15 -9 -1 -2 29 -29
right_child=2 6 4 -5 5 14 8 25 -10 13 -12 19 -14 24 -16 -17 -18 18 -20 21 -22 22 -24 -25 -26 -27 -28 28 -30 -31
leaf_value=-0.060812676956139969 0.013112007434865368 0.050489635219167509 -0.0015716041781525234 -0.060085639303323259 0.072416012701553331 -0.013559336236580222 -0.041678711247908166 -0.00057513861157919191 -0.041628030227054587 -0.055643307430507466 0.024881095333546002 -0.024803089349862931 -0.023167926098848175 0.016239287469839363 0.0088885884030614412 0.0085314779037126472 -0.02802215955161752 -0.03264112741953322 0.03667284917910614 -0.042655393067517665 0.033689628765755757 0.06046103801493407 -0.016753338756284656 -0.033834711468090535 -0.047474153011601433 -0.042008196112341245 -0.0059056779260456688 0.016827650696346005 -0.0094016192615488207 0.049693360209996762
leaf_count=37 2583 27 92 31 33 128 186 40 207 398 23 23 40 20 341 90 186 81 27 64 36 26 449 23 26 63 24 161 65 117
internal_value=0 -0.249963 0.106197 0.13364 -0.006851 0.0780998 -0.187427 0.00693926 -0.232106 -0.44662 -0.194516 -0.195919 0.139198 -0.507804 0.0305493 0.196033 -0.179422 -0.319616 -0.152598 -0.139839 0.111163 -0.168523 -0.134693 0.164928 -0.183483 -0.25649 -0.388174 0.143412 0.235163 0.309314
internal_count=5647 1870 3777 2997 780 502 1342 220 1122 528 84 915 2966 444 469 117 278 294 108 621 59 562 498 49 46 103 61 2926 343 278
shrinkage=0.1


Tree=30
num_leaves=31
num_cat=0
split_feature=6 3 4 4 8 8 2 2 2 7 4 2 2 2 7 7 4 8 0 3 0 4 4 2 6 7 2 4 2 5
split_gain=106.608 47.3721 20.5938 11.2774 8.1588 6.83642 5.30875 4.73916 4.66516 8.62459 4.535 4.24978 4.15109 4.10867 4.84615 4.65104 3.28037 3.21896 3.0664 2.91049 2.74764 2.99368 2.73538 2.60396 3.36504 3.2542 2.57224 2.39152 2.26832 2.18346
threshold=1.5000000000000002 1.0000000180025095e-35 1.5000000000000002 1.5000000000000002 3.5000000000000004 3.5000000000000004 21.500000000000004 14.500000000000002 5.5000000000000009 2.5000000000000004 4.5000000000000009 18.500000000000004 51.500000000000007 15.500000000000002 1.5000000000000002 1.0000000180025095e-35 7.5000000000000009 4.5000000000000009 1.0000000180025095e-35 1.0000000180025095e-35 1.0000000180025095e-35 1.0000000180025095e-35 3.5000000000000004 14.500000000000002 1.0000000180025095e-35 1.5000000000000002 15.500000000000002 3.5000000000000004 33.500000000000007 1.0000000180025095e-35
decision_type=2 2 2 2 2 2 2 2 2 2 2 2 2 2 2 2 2 2 2 2 2 2 2 2 2 2 2 2 2 2
left_child=1 4 6 13 -1 -4 23 -7 16 10 -10 -6 18 14 -2 17 22 -15 28 -17 21 -8 -5 -3 25 -25 -11 -20 -13 -27
right_child=3 2 5 8 11 7 20 -9 9 26 -12 12 -14 15 -16 19 -18 -19 27 -21 -22 -23 -24 24 -26 29 -28 -29 -30 -31
leaf_value=-0.041111575495726006 -0.045011104235246048 -0.0062593776556655965 -0.013846442112820767 -0.0024596085912530802 -0.036563533054424703 -0.05018647865905438 0.071432149966977249 0.027250877736111408 -0.046138763712725496 0.00063620053500421591 -0.023943987778661021 -0.039321676044632853 -0.031179583096555049 -0.042769945696332419 -0.008096641871385651 -0.029683639707067801 -0.0024459431211376406 -0.0066673489052794695 0.048220034557211279 0.015229696751902499 0.048804803536417599 0.017145058210392031 -0.058483968942779976 0.064496126219182021 -0.0053068062506201391 0.065330200025807264 -0.030357264895981839 0.0085648318740707517 0.018308779943842165 0.0081064441506987009
leaf_count=266 184 41 156 27 87 26 291 521 590 351 663 35 68 95 267 44 40 301 79 352 329 25 393 94 34 20 107 72 34 55
internal_value=0 0.247839 0.373258 -0.213684 -0.15918 0.16783 0.514572 0.24503 -0.297099 -0.256618 -0.339787 -0.0110316 0.0760335 -0.0892469 -0.223181 -0.0188896 -0.474275 -0.151875 0.172883 0.10346 0.580875 0.675813 -0.534558 0.324062 0.386128 0.468074 -0.0607628 0.297383 -0.105631 0.234598
internal_count=5647 2233 1592 3414 641 703 889 547 2171 1711 1253 375 288 1243 451 792 460 396 220 396 645 316 420 244 203 169 458 151 69 75
shrinkage=0.1


Tree=31
num_leaves=31
num_cat=0
split_feature=2 2 4 6 4 4 8 4 4 5 4 2 3 7 6 3 2 1 2 0 2 4 4 8 3 2 2 2 8 5
split_gain=220.839 41.3862 40.4606 36.3655 14.5757 7.61957 7.39683 7.02878 6.04806 4.01949 2.97116 3.19953 4.44818 2.90209 2.72714 2.6994 2.64288 3.10353 3.25139 2.37952 2.28383 2.17902 2.1726 2.13059 2.06747 2.04495 2.00094 1.92927 1.92624 1.91687
threshold=14.500000000000002 5.5000000000000009 1.5000000000000002 1.5000000000000002 1.0000000180025095e-35 7.5000000000000009 3.5000000000000004 4.5000000000000009 5.5000000000000009 1.5000000000000002 3.5000000000000004 23.500000000000004 1.0000000180025095e-35 1.0000000180025095e-35 1.0000000180025095e-35 1.0000000180025095e-35 7.5000000000000009 1.0000000180025095e-35 12.500000000000002 1.0000000180025095e-35 21.500000000000004 8.5000000000000018 1.0000000180025095e-35 4.5000000000000009 1.0000000180025095e-35 46.500000000000007 17.500000000000004 28.500000000000004 5.5000000000000009 3.5000000000000004
decision_type=2 2 2 2 2 2 2 2 2 2 2 2 2 2 2 2 2 2 2 2 2 2 2 2 2 2 2 2 2 2
left_child=1 7 14 6 29 10 15 -1 -9 23 27 -12 19 25 -2 -4 -11 -18 -19 -13 -17 -7 28 -6 -8 -14 -24 -5 -16 -3
right_child=2 4 3 5 9 21 24 8 -10 16 11 12 13 -15 22 20 17 18 -20 -21 -22 -23 26 -25 -26 -27 -28 -29 -30 -31
leaf_value=0.034835878341316018 -0.056109860131324046 -0.0016221283547185621 3.1086278247859514e-05 0.0027775085969128453 0.01298847469327768 0.062150689239874816 -0.031538739678573964 0.085311857388106704 0.031845753601337866 0.062196483545734649 0.036075922836921952 -0.0075099913449749468 -0.025526629276744785 -0.033949522550930054 -0.046899582261268391 -0.0046572720933498474 0.043406152944335197 -0.0094018444236143705 0.050409207608618715 0.043202239284712764 -0.051303424856980244 0.015511716819341152 0.01819440099847985 0.02975344763207511 -0.050729684120096014 0.022738642486138865 -0.032363038845565413 -0.020592817987871617 -0.0019987597147419107 -0.032593348339839547
leaf_count=88 775 121 167 281 283 68 252 391 49 96 101 28 31 74 852 48 238 59 30 74 78 31 27 416 521 67 118 153 31 99
internal_value=0 0.384222 -0.271612 -0.11667 0.240525 0.102365 -0.344885 0.720168 0.79377 0.301992 0.0477638 0.142149 0.0531127 -0.10561 -0.475616 -0.12773 0.412733 0.349885 0.111335 0.293039 -0.321309 0.47829 -0.417878 0.232138 -0.44049 0.0708944 -0.230218 -0.0493531 -0.452983 -0.154381
internal_count=5647 1870 3777 1974 1342 908 1066 528 440 1122 809 375 274 172 1803 293 423 327 89 102 126 99 1028 699 773 98 145 434 883 220
shrinkage=0.1


Tree=32
num_leaves=31
num_cat=0
split_feature=2 6 4 4 4 2 2 2 7 2 3 2 2 3 8 5 2 3 1 4 2 6 2 2 4 7 8 2 0 5
split_gain=30.3517 19.9916 17.869 13.0995 8.07409 6.95291 5.41593 6.68934 4.50329 4.09713 3.54812 2.84014 2.66364 2.42313 2.40233 2.39497 2.31627 2.18861 2.15588 2.10258 2.01889 2.49132 2.01498 2.90021 1.92112 2.66395 3.03565 3.12977 2.47144 2.11583
threshold=5.5000000000000009 1.5000000000000002 3.5000000000000004 1.0000000180025095e-35 1.5000000000000002 15.500000000000002 23.500000000000004 50.500000000000007 1.5000000000000002 24.500000000000004 1.0000000180025095e-35 29.500000000000004 15.500000000000002 1.0000000180025095e-35 4.5000000000000009 6.5000000000000009 58.500000000000007 1.0000000180025095e-35 1.0000000180025095e-35 4.5000000000000009 21.500000000000004 1.0000000180025095e-35 41.500000000000007 18.500000000000004 1.0000000180025095e-35 1.0000000180025095e-35 3.5000000000000004 12.500000000000002 1.0000000180025095e-35 8.5000000000000018
decision_type=2 2 2 2 2 2 2 2 2 2 2 2 2 2 2 2 2 2 2 2 2 2 2 2 2 2 2 2 2 2
left_child=19 3 4 13 9 14 -5 10 22 24 -8 -11 17 -2 -4 -14 -7 -10 -16 -1 21 -15 23 -6 28 29 -27 -28 -3 -26
right_child=1 2 5 6 8 16 7 -9 12 11 -12 -13 15 20 18 -17 -18 -19 -20 -21 -22 -23 -24 -25 25 26 27 -29 -30 -31
leaf_value=-0.020785909765969439 -0.0020174880723349978 0.013069290202187452 -0.0054597993082201209 0.013201778655760674 0.031247453388447956 0.0024324793253090336 -0.0018029194312384131 0.017494326769926041 0.02077408662945221 -0.021627696912005206 -0.027651825571647404 0.0080870426613205565 0.043250489710500606 -0.025813378875709166 -0.033888482802429426 -0.0026527584464859952 0.03247952615492368 -0.018222854755702216 0.0082704534478281657 -0.053019618628972767 -0.037550765637254901 0.024745141302037366 0.0069014797952141136 0.058059054766557011 0.05390772431291329 0.026376800611974206 -0.043712032720006073 0.0072609039695695904 0.033347815951518631 -0.0079572434126213513
leaf_count=88 86 282 215 493 163 380 239 182 81 132 422 263 105 179 322 33 74 70 40 440 584 31 30 198 38 60 67 61 269 20
internal_value=0 0.0362319 0.119476 -0.0911078 0.203844 -0.0662392 0.00392866 -0.0819398 0.332746 0.123969 -0.170276 -0.0154896 0.184363 -0.275995 -0.199726 0.325632 0.0799698 0.0293298 -0.288613 -0.466806 -0.313417 -0.166163 0.433902 0.464856 0.184648 0.0658295 -0.0332788 -0.176351 0.232573 0.34303
internal_count=5647 5119 2903 2216 1872 1031 1336 843 680 1192 661 395 289 880 577 138 454 151 362 528 794 210 391 361 797 246 188 128 551 58
shrinkage=0.1


Tree=33
num_leaves=31
num_cat=0
split_feature=2 2 4 2 2 4 4 7 5 4 7 4 7 7 7 6 6 8 2 8 1 1 5 7 2 3 4 6 5 4
split_gain=44.3882 6.2856 3.91248 4.30908 3.61732 4.8295 3.15036 3.45269 2.15614 1.98643 2.06356 1.6424 1.60309 1.57501 1.45249 1.33407 1.32049 1.31038 1.27355 1.2562 1.23698 1.15803 2.34027 1.11856 1.13403 1.85965 2.66538 3.48071 2.73032 2.16469
threshold=14.500000000000002 5.5000000000000009 4.5000000000000009 60.500000000000007 32.500000000000007 6.5000000000000009 1.0000000180025095e-35 1.5000000000000002 12.500000000000002 3.5000000000000004 3.5000000000000004 6.5000000000000009 5.5000000000000009 1.5000000000000002 1.0000000180025095e-35 1.5000000000000002 1.0000000180025095e-35 2.5000000000000004 3.5000000000000004 3.5000000000000004 1.5000000000000002 1.0000000180025095e-35 3.5000000000000004 4.5000000000000009 28.500000000000004 1.0000000180025095e-35 1.0000000180025095e-35 1.5000000000000002 1.0000000180025095e-35 3.5000000000000004
decision_type=2 2 2 2 2 2 2 2 2 2 2 2 2 2 2 2 2 2 2 2 2 2 2 2 2 2 2 2 2 2
left_child=1 9 3 12 15 -6 7 16 13 10 18 -11 20 21 -7 -4 -3 -13 -1 -9 23 -8 -23 24 25 26 -2 28 -28 -27
right_child=2 6 4 -5 5 14 8 19 -10 11 -12 17 -14 -15 -16 -17 -18 -19 -20 -21 -22 22 -24 -25 -26 29 27 -29 -30 -31
leaf_value=-0.060075177431254449 0.024848757440049263 0.04604427500154501 -0.0018173791584039961 -0.059520086243376215 0.065593792502126533 -0.012748369341188122 -0.038817400875836981 -0.00066740726342696976 -0.041865552100007704 -0.054780439526067995 0.023897710227094617 0.015474635636816931 -0.022430932954979887 -0.013802356329810679 0.008222143770513831 -0.026801615791284636 0.0076822667791815822 -0.046486906545944451 -0.0051412928981297741 -0.041036077356170035 0.04063265144042557 -0.031363707172947758 0.028958509706922143 0.034927127282347717 0.016364497206389158 0.010773291388250929 -0.027712557442964098 -0.032226439642052365 0.019758250100992802 0.036211801622435383
leaf_count=37 77 27 92 31 33 128 189 40 184 398 23 20 40 639 341 186 90 26 24 63 43 81 29 58 1200 1188 43 118 108 91
internal_value=0 -0.237708 0.100106 0.125837 -0.00670843 0.0728439 -0.177713 0.00313564 -0.220236 -0.433464 -0.183671 -0.496804 0.131047 -0.187473 0.028382 -0.171251 0.179089 -0.17526 -0.375924 -0.248485 0.135008 -0.29936 -0.149919 0.13096 0.126343 0.0983713 -0.00846367 -0.0888301 0.0628258 0.126397
internal_count=5647 1870 3777 2997 780 502 1342 220 1122 528 84 444 2966 938 469 278 117 46 61 103 2926 299 110 2883 2825 1625 346 269 151 1279
shrinkage=0.1


Tree=34
num_leaves=31
num_cat=0
split_feature=6 3 4 4 8 2 2 2 7 4 2 7 2 2 2 0 4 4 6 4 2 6 0 4 8 3 2 8 5 7
split_gain=92.4245 40.958 17.7902 10.0801 7.50375 6.13718 4.63671 4.4036 8.08764 4.32342 3.82812 3.82311 4.14331 3.9429 3.7128 3.25936 3.20228 5.74595 3.34962 3.1314 2.91814 3.06391 2.69709 2.69065 2.6586 2.6227 2.34068 2.16839 2.1343 2.13481
threshold=1.5000000000000002 1.0000000180025095e-35 1.5000000000000002 1.5000000000000002 3.5000000000000004 23.500000000000004 24.500000000000004 5.5000000000000009 2.5000000000000004 4.5000000000000009 18.500000000000004 1.0000000180025095e-35 20.500000000000004 15.500000000000002 51.500000000000007 1.0000000180025095e-35 3.5000000000000004 5.5000000000000009 1.0000000180025095e-35 7.5000000000000009 14.500000000000002 1.0000000180025095e-35 1.0000000180025095e-35 3.5000000000000004 4.5000000000000009 1.0000000180025095e-35 15.500000000000002 2.5000000000000004 12.500000000000002 2.5000000000000004
decision_type=2 2 2 2 2 2 2 2 2 2 2 2 2 2 2 2 2 2 2 2 2 2 2 2 2 2 2 2 2 2
left_child=1 4 6 11 27 -4 15 19 9 -9 -6 12 -2 28 22 -3 18 -18 -7 23 -17 -22 -12 -5 -14 -15 -10 -1 29 -13
right_child=3 2 5 7 10 16 -8 8 26 -11 14 13 24 25 -16 20 17 -19 -20 -21 21 -23 -24 -25 -26 -27 -28 -29 -30 -31
leaf_value=-0.014179361461043222 -0.041476319453134493 0.049884665446075976 -0.0072482027725165642 -0.0017394842035641928 -0.035403385096806204 0.015497894671016319 0.05541302916353405 -0.044843998160499166 0.00093697801328105138 -0.022810298943903906 -0.010282397407366192 -0.02278740494314592 -0.038473054506040029 -0.028708733966581881 -0.030186335563710594 -0.028402415204570861 0.054933477270241254 0.015257641014736052 -0.048982507592753355 -0.0022871558045981159 0.034862285647726879 -0.028180884411100195 0.027474408041988099 -0.057687358368666321 0.0001107099934051833 0.014186688221250477 -0.028953668679688752 -0.050666441371283413 -0.050447240990813318 0.0057816762335569311
leaf_count=77 200 150 235 27 87 113 548 590 351 663 69 176 67 44 68 29 137 194 24 40 142 20 151 393 224 352 107 189 43 137
internal_value=0 0.228696 0.343841 -0.202622 -0.153066 0.153559 0.474447 -0.283267 -0.24401 -0.326442 -0.0120854 -0.085181 -0.205861 -0.0120688 0.0694181 0.337365 0.246745 0.3243 0.0466058 -0.46104 0.208015 0.276467 0.159574 -0.523654 -0.0845331 0.0961719 -0.0541835 -0.399584 -0.147069 -0.0973352
internal_count=5647 2233 1592 3414 641 703 889 2171 1711 1253 375 1243 491 752 288 341 468 331 137 460 191 162 220 420 291 396 458 266 356 313
shrinkage=0.1


Tree=35
num_leaves=31
num_cat=0
split_feature=2 4 2 6 4 4 3 4 4 2 2 3 5 7 2 2 1 2 8 2 2 4 4 0 7 5 8 2 8 2
split_gain=192.408 38.222 36.2278 31.0318 12.6708 8.48436 8.22081 6.46846 5.69873 4.17435 4.01603 4.19223 3.56593 2.35847 2.352 2.34049 2.68624 2.89938 2.15777 2.53352 2.06778 2.95696 3.04548 2.05923 2.32655 2.05789 2.03411 1.93588 2.65139 1.94953
threshold=14.500000000000002 1.0000000180025095e-35 5.5000000000000009 1.5000000000000002 1.0000000180025095e-35 3.5000000000000004 1.0000000180025095e-35 4.5000000000000009 5.5000000000000009 20.500000000000004 25.500000000000004 1.0000000180025095e-35 1.5000000000000002 1.0000000180025095e-35 18.500000000000004 7.5000000000000009 1.0000000180025095e-35 12.500000000000002 3.5000000000000004 38.500000000000007 23.500000000000004 4.5000000000000009 5.5000000000000009 1.0000000180025095e-35 5.5000000000000009 1.0000000180025095e-35 4.5000000000000009 30.500000000000004 4.5000000000000009 37.500000000000007
decision_type=2 2 2 2 2 2 2 2 2 2 2 2 2 2 2 2 2 2 2 2 2 2 2 2 2 2 2 2 2 2
left_child=2 13 7 6 -4 27 9 -1 -9 14 -7 -12 23 -2 -3 -14 -17 -18 -11 -20 21 -8 -23 24 26 -21 -6 -5 -29 -30
right_child=1 3 4 5 12 10 20 8 -10 18 11 -13 15 -15 -16 16 17 -19 19 25 -22 22 -24 -25 -26 -27 -28 28 29 -31
leaf_value=0.031889229532923578 -0.036972591901656159 -0.0015047391274001357 -0.014803174336601846 -0.0028813082752243441 0.0020861176402157877 0.037789962008250563 -0.042833083604767418 0.080492979741379644 0.028708921748765978 -0.0082220233994762335 0.030818371474249179 -0.0052834211311765392 0.057846522550566187 -0.053523523458375515 0.057657714370816716 0.040149185432247783 -0.0092993174966708638 0.046950267634357785 -0.05649826735046766 -0.046567492917102021 -0.052200436179509938 0.058934855648008259 -0.030628265640304242 0.029229155005199632 -0.034169361510241823 -0.0028332081126202866 0.02590918453648694 -0.057606663547092145 -0.037009941953845625 0.010932913567965732
leaf_count=88 371 61 220 408 140 165 160 391 49 132 117 192 96 1190 25 238 59 30 98 52 524 20 27 348 22 83 189 51 43 58
internal_value=0 -0.260402 0.35496 -0.128751 0.222071 0.0603567 -0.334526 0.673246 0.745604 -0.16171 0.199861 0.0938379 0.27873 -0.492819 0.159188 0.382645 0.323642 0.101982 -0.24303 -0.348169 -0.459087 -0.311002 0.0698337 0.213243 0.132201 -0.196746 0.163133 -0.085996 -0.252929 -0.0943579
internal_count=5647 3777 1870 2216 1342 1034 1182 528 440 451 474 309 1122 1561 86 423 327 89 365 233 731 207 47 699 351 135 329 560 152 101
shrinkage=0.1


Tree=36
num_leaves=31
num_cat=0
split_feature=2 6 4 4 4 7 2 2 7 2 2 5 2 2 2 3 4 2 6 7 3 8 2 2 7 2 2 3 2 3
split_gain=27.0872 17.3091 15.2622 11.5933 7.13953 6.31834 4.82407 6.01932 3.87189 3.5809 2.8304 2.75416 2.5362 2.40254 2.36496 2.15188 2.05492 1.87934 2.22559 1.81289 1.80505 1.90187 1.75563 2.68101 1.72813 4.55663 2.03505 6.46922 1.62791 1.56958
threshold=5.5000000000000009 1.5000000000000002 3.5000000000000004 1.0000000180025095e-35 1.5000000000000002 1.5000000000000002 23.500000000000004 41.500000000000007 1.5000000000000002 24.500000000000004 35.500000000000007 13.500000000000002 29.500000000000004 31.500000000000004 22.500000000000004 1.0000000180025095e-35 4.5000000000000009 21.500000000000004 1.0000000180025095e-35 3.5000000000000004 1.0000000180025095e-35 2.5000000000000004 39.500000000000007 18.500000000000004 1.5000000000000002 9.5000000000000018 20.500000000000004 1.0000000180025095e-35 63.500000000000007 1.0000000180025095e-35
decision_type=2 2 2 2 2 2 2 2 2 2 2 2 2 2 2 2 2 2 2 2 2 2 2 2 2 2 2 2 2 2
left_child=16 3 4 15 9 -4 24 10 22 19 20 12 -11 29 -7 -2 -1 18 -17 -3 -8 -22 23 -6 25 -5 -26 -28 -9 -10
right_child=1 2 5 6 8 14 7 28 13 11 -12 -13 -14 -15 -16 17 -18 -19 -20 -21 21 -23 -24 -25 26 -27 27 -29 -30 -31
leaf_value=-0.019672739616677513 -0.0022272471192920948 0.019214613288398612 0.0070306977580844145 0.068897202144773254 0.029014528854090685 -0.025239094119060723 0.0022542622092130214 0.0034425449059281711 0.023517667005607718 -0.018401200150867873 -0.04388945369922953 -0.064013353535035941 0.010494393207693159 0.050843535118892939 0.0048418741603698939 -0.024555836957792995 -0.052012766684052414 -0.036072811640474829 0.023086354037731287 -0.0070136951074614238 0.013126033068779828 -0.0306371975616282 0.010351882461196447 0.054846523473330577 -0.0027292568889028292 0.01107403226916742 0.070072367710087416 -0.023873130497875546 0.036423289787399733 -0.0010277505374411214
leaf_count=88 86 724 480 40 163 463 120 324 125 124 125 20 251 38 88 179 440 584 31 73 38 197 38 190 225 155 39 34 39 126
internal_value=0 0.0342525 0.111278 -0.0852236 0.188562 -0.0614071 0.00343405 -0.0782271 0.309078 0.113576 -0.211515 -0.0168741 0.0131993 0.171637 -0.197081 -0.262587 -0.454077 -0.299029 -0.156265 0.169941 -0.132245 -0.232396 0.402046 0.434582 0.123611 0.23792 0.0475949 0.275102 0.0760721 0.113293
internal_count=5647 5119 2903 2216 1872 1031 1336 843 680 1192 480 395 375 289 551 880 528 794 210 797 355 235 391 353 493 195 298 73 363 251
shrinkage=0.1


Tree=37
num_leaves=31
num_cat=0
split_feature=2 2 4 4 7 5 2 4 4 7 4 7 7 7 4 6 4 6 6 0 1 4 4 5 2 5 2 5 5 4
split_gain=39.3314 5.81716 3.59207 2.77558 3.09513 2.05154 1.93696 2.17091 1.92796 1.9177 1.60396 1.60016 1.47816 1.47103 8.48726 5.47357 4.6381 7.44521 6.27842 4.4198 3.53294 2.92401 2.77527 2.68523 2.42601 4.60542 3.94959 2.80965 2.26144 2.22473
threshold=14.500000000000002 5.5000000000000009 7.5000000000000009 1.0000000180025095e-35 1.5000000000000002 12.500000000000002 61.500000000000007 6.5000000000000009 3.5000000000000004 3.5000000000000004 6.5000000000000009 5.5000000000000009 1.5000000000000002 2.5000000000000004 1.5000000000000002 1.5000000000000002 1.0000000180025095e-35 1.5000000000000002 1.5000000000000002 1.0000000180025095e-35 1.0000000180025095e-35 1.5000000000000002 5.5000000000000009 12.500000000000002 22.500000000000004 13.500000000000002 20.500000000000004 9.5000000000000018 13.500000000000002 2.5000000000000004
decision_type=2 2 2 2 2 2 2 2 2 2 2 2 2 2 2 2 2 2 2 2 2 2 2 2 2 2 2 2 2 2
left_child=1 8 6 4 -3 12 11 -8 9 -1 -10 13 -5 16 -15 23 17 -2 -18 20 21 -20 -23 29 26 27 28 -26 -19 -16
right_child=2 3 -4 5 -6 -7 7 -9 10 -11 -12 -13 -14 14 15 -17 18 24 19 -21 -22 22 -24 -25 25 -27 -28 -29 -30 -31
leaf_value=-0.036398104079479375 0.0024430571433852041 0.016561687566261307 -0.016856783066163908 -0.028736978334377789 -0.024032042704561232 -0.040701261126139907 -0.058945483207990569 0.00062825979161933241 -0.053965424872000414 0.023021348869360171 -0.016733071656691582 -0.02172121879471035 -0.01293521567884434 -0.0010984474377229905 0.069404131205112948 -0.0059116636495774155 0.014086334850205244 0.033543954896653468 0.031680906117636874 -0.019165340205977818 0.023918839715044271 -0.030304860184208415 0.028222393989018768 0.0002560083993067211 0.036518598470336151 0.10794566352174347 -0.013945038778732103 -0.0068352667513070014 -0.021309444835334711 0.038142432999356927
leaf_count=61 560 117 159 299 103 184 31 76 398 23 46 47 639 358 70 87 685 184 35 415 167 134 31 37 317 20 78 40 21 225
internal_value=0 -0.225982 0.0948215 -0.168649 0.00089014 -0.209277 0.104369 -0.127343 -0.420441 -0.173131 -0.486058 0.110433 -0.177359 0.114068 0.175187 0.325266 0.0959528 0.168078 0.0332054 -0.0732048 0.0621762 -0.0930022 -0.197108 0.409935 0.276783 0.356745 0.164996 0.316471 0.279619 0.457761
internal_count=5647 1870 3777 1342 220 1122 3618 107 528 84 444 3511 938 3464 777 419 2687 1220 1467 782 367 200 165 332 660 377 283 357 205 295
shrinkage=0.1


Tree=38
num_leaves=31
num_cat=0
split_feature=6 3 4 4 8 8 7 2 0 2 2 2 2 2 5 4 0 5 4 2 6 7 7 8 0 5 8 3 2 2
split_gain=80.3176 35.5197 15.3955 9.04671 6.94732 5.61866 4.85858 5.52434 4.22691 4.08542 3.94804 3.65427 3.49377 4.3284 3.27904 3.16372 2.8444 2.70957 2.61737 2.53676 2.67296 2.46161 2.29408 2.15098 2.98813 3.39157 2.10177 2.07588 2.57773 1.97508
threshold=1.5000000000000002 1.0000000180025095e-35 1.5000000000000002 1.0000000180025095e-35 3.5000000000000004 3.5000000000000004 2.5000000000000004 5.5000000000000009 1.0000000180025095e-35 24.500000000000004 14.500000000000002 20.500000000000004 22.500000000000004 46.500000000000007 9.5000000000000018 3.5000000000000004 1.0000000180025095e-35 1.0000000180025095e-35 7.5000000000000009 14.500000000000002 1.0000000180025095e-35 2.5000000000000004 1.0000000180025095e-35 4.5000000000000009 1.0000000180025095e-35 2.5000000000000004 2.5000000000000004 1.0000000180025095e-35 24.500000000000004 14.500000000000002
decision_type=2 2 2 2 2 2 2 2 2 2 2 2 2 2 2 2 2 2 2 2 2 2 2 2 2 2 2 2 2 2
left_child=1 4 9 8 26 -4 27 15 11 16 -7 21 -6 -14 -13 -8 -3 22 -17 -18 -21 -2 -10 -9 25 -25 -1 29 -29 -5
right_child=3 2 5 6 12 10 7 23 17 -11 -12 14 13 -15 -16 18 19 -19 -20 20 -22 -23 -24 24 -26 -27 -28 28 -30 -31
leaf_value=-0.013420459774658267 -0.020076486237697075 0.046022378312396889 -0.013771069936870377 -0.031035904541353188 -0.026103470297777639 -0.048791927345210928 0.0015213297538547313 -0.016973998794568561 -0.024143072585705479 0.051331936985674204 0.023401020345049556 0.0089643658168748613 0.024413057948165121 -0.019987346528287694 0.054067118889145983 -0.056646684093970813 -0.027334338664249752 -0.025005567218563941 0.0029488098151278985 0.031921073094780129 -0.027172979930660309 0.02873639068829037 0.022140654233958827 0.042318900227035453 -0.010595983780827092 -0.018132818644823665 -0.049687447962434711 -0.033424771402562579 -0.01285705269954536 -0.051294356491453967
leaf_count=77 171 150 156 440 124 26 46 248 53 548 521 183 152 99 51 246 29 340 23 142 20 34 75 89 167 40 189 580 331 297
internal_value=0 0.211664 0.317763 -0.192071 -0.146846 0.141123 -0.254379 -0.145396 -0.0528908 0.43872 0.209926 0.0604013 -0.0120992 0.0903955 0.190023 -0.372562 0.310673 -0.168545 -0.48004 0.189871 0.252751 -0.112593 0.0396916 -0.0521998 0.0467034 0.241501 -0.388624 -0.316246 -0.25748 -0.393095
internal_count=5647 2233 1592 3414 641 703 2507 859 907 889 547 439 375 251 234 315 341 468 269 191 162 205 128 544 296 129 266 1648 911 737
shrinkage=0.1


Tree=39
num_leaves=31
num_cat=0
split_feature=2 4 2 6 4 3 4 4 4 2 3 2 5 7 2 2 1 2 2 4 4 8 2 5 7 5 7 0 7 7
split_gain=167.411 36.0792 32.116 28.4536 10.8972 7.78988 7.11826 6.02612 5.44315 3.80053 3.59644 3.71127 3.15905 2.31319 2.07932 2.45952 3.22495 2.07418 2.04004 2.75191 2.69342 1.96887 2.44316 1.94614 1.87856 1.83142 1.85379 1.81084 2.08544 1.79117
